{"type":"LSTM","options":{"inputSize":26,"inputRange":26,"hiddenLayers":[20,20],"outputSize":26,"decayRate":0.999,"smoothEps":1e-8,"regc":0.000001,"clipval":5,"maxPredictionLength":100,"dataFormatter":{"values":["anana","true","banana","false","aranara","arenera","abrebnberba","aaa","xxxxx","bb","mmeemm","a","afromorfa","palabra","re","er","vr","rv","ea","eaea","eeaa","rere","ggkk","ae","eyr","rye","yo","el","malayalam","orejero","cosa","alla","cuidado","gonzalo","algo","esperando","teclado","nunca","primavera","mango","cuidaparedesdo","asdfgfgj","aya"],"indexTable":{"a":0,"n":1,"t":2,"r":3,"u":4,"e":5,"b":6,"f":7,"l":8,"s":9,"x":10,"m":11,"o":12,"p":13,"v":14,"g":15,"k":16,"y":17,"j":18,"c":19,"i":20,"d":21,"z":22,"stop-input":23,"start-output":24,"unrecognized":25},"characterTable":{"0":"a","1":"n","2":"t","3":"r","4":"u","5":"e","6":"b","7":"f","8":"l","9":"s","10":"x","11":"m","12":"o","13":"p","14":"v","15":"g","16":"k","17":"y","18":"j","19":"c","20":"i","21":"d","22":"z","23":null,"24":null,"25":null},"characters":["a","n","t","r","u","e","b","f","l","s","x","m","o","p","v","g","k","y","j","c","i","d","z","stop-input","start-output","unrecognized"],"specialIndexes":[23,24,25]}},"input":{"rows":27,"columns":26,"weights":{"0":0.7277776002883911,"1":-0.17508265376091003,"2":-1.213193655014038,"3":-0.10192874073982239,"4":-0.6613874435424805,"5":-0.9617489576339722,"6":0.22759707272052765,"7":-0.0029820643831044436,"8":-0.6154621243476868,"9":-0.040962204337120056,"10":-0.46055343747138977,"11":-0.09333746135234833,"12":0.4982643127441406,"13":-0.4643345773220062,"14":-0.562926709651947,"15":0.1732209175825119,"16":0.16814956068992615,"17":-0.37689778208732605,"18":-0.3961295187473297,"19":0.22483034431934357,"20":0.7189217209815979,"21":-0.21971067786216736,"22":0.4534569978713989,"23":-0.38296613097190857,"24":0.31455621123313904,"25":0.5983453989028931,"26":0.6502234935760498,"27":-1.21676766872406,"28":0.040987707674503326,"29":-0.1237473338842392,"30":-0.6667072772979736,"31":0.3066191077232361,"32":0.08029996603727341,"33":-0.21283331513404846,"34":2.682988166809082,"35":-0.09719756245613098,"36":1.0289344787597656,"37":-0.25564703345298767,"38":0.11748626828193665,"39":0.7343084812164307,"40":-0.6155175566673279,"41":0.27587050199508667,"42":-0.036118388175964355,"43":0.2172422558069229,"44":0.14367003738880157,"45":0.35636165738105774,"46":1.4161607027053833,"47":-0.46159952878952026,"48":0.09120204299688339,"49":0.7568803429603577,"50":0.25520479679107666,"51":1.5027716159820557,"52":-0.3447214663028717,"53":1.7220011949539185,"54":-2.3888964653015137,"55":-2.11649227142334,"56":-7.64371395111084,"57":-0.7645803689956665,"58":3.3525662422180176,"59":-0.36103716492652893,"60":-0.517034649848938,"61":-2.5433783531188965,"62":1.0864437818527222,"63":-1.491076946258545,"64":1.551426887512207,"65":0.5222387313842773,"66":0.475385457277298,"67":-0.22669225931167603,"68":-1.6488293409347534,"69":1.8178297281265259,"70":-1.3110344409942627,"71":6.817922592163086,"72":-0.3905618488788605,"73":3.109424114227295,"74":-2.368208885192871,"75":0.854361355304718,"76":-0.9752513766288757,"77":1.968147873878479,"78":-1.5345581769943237,"79":0.6487537622451782,"80":0.2248426228761673,"81":0.5195819735527039,"82":2.390657663345337,"83":5.97796106338501,"84":0.3886919915676117,"85":-0.8401205539703369,"86":-2.0008797645568848,"87":-1.0757638216018677,"88":0.2750774323940277,"89":-4.458673477172852,"90":1.2797749042510986,"91":0.3787422776222229,"92":-1.1605520248413086,"93":-0.5432918667793274,"94":-1.670751690864563,"95":2.572272777557373,"96":0.8557273745536804,"97":-1.7105591297149658,"98":-0.5441877245903015,"99":-0.6685951948165894,"100":0.6725944876670837,"101":3.0664174556732178,"102":4.812952995300293,"103":-2.7012298107147217,"104":-0.8482218980789185,"105":0.19146843254566193,"106":0.6147997379302979,"107":0.13411498069763184,"108":-0.246547132730484,"109":-0.51993727684021,"110":0.2419479340314865,"111":-0.5726003050804138,"112":-0.8025376200675964,"113":0.503868043422699,"114":0.8977274298667908,"115":-1.0240336656570435,"116":0.8066432476043701,"117":-0.08666732162237167,"118":0.33534547686576843,"119":0.030894123017787933,"120":0.9630709886550903,"121":-0.8033023476600647,"122":-2.404292106628418,"123":-0.6078541278839111,"124":-0.1198459342122078,"125":-1.1124929189682007,"126":0.04252605885267258,"127":0.156235471367836,"128":-0.6575670838356018,"129":-0.7653869390487671,"130":1.4217664003372192,"131":-1.5294666290283203,"132":-0.2661503851413727,"133":-1.0168006420135498,"134":-0.14909569919109344,"135":-0.914720892906189,"136":0.8138992786407471,"137":-0.13869479298591614,"138":1.2084980010986328,"139":0.002995325019583106,"140":0.7498594522476196,"141":-0.301810622215271,"142":0.14322258532047272,"143":0.43685397505760193,"144":0.8696473836898804,"145":1.1150743961334229,"146":1.2137300968170166,"147":0.07960624247789383,"148":-0.7957491874694824,"149":1.7950775623321533,"150":-1.9292703866958618,"151":2.612497091293335,"152":-0.42072373628616333,"153":0.891320526599884,"154":-0.056346774101257324,"155":2.138155698776245,"156":0.1605653166770935,"157":0.1717502623796463,"158":0.5096068382263184,"159":0.5055107474327087,"160":0.1418435275554657,"161":0.2290724664926529,"162":-0.5098068714141846,"163":-0.010866541415452957,"164":0.7622929811477661,"165":0.5531463623046875,"166":0.4205482304096222,"167":0.017471585422754288,"168":-0.8856633305549622,"169":-0.3533863425254822,"170":0.15708070993423462,"171":0.6823707818984985,"172":0.2489168792963028,"173":0.31763654947280884,"174":0.9100614786148071,"175":0.44529223442077637,"176":-0.8876047134399414,"177":-0.7768500447273254,"178":0.07742827385663986,"179":0.1811712384223938,"180":-0.06410262733697891,"181":1.1925169229507446,"182":1.0939412117004395,"183":3.8722634315490723,"184":-1.8038926124572754,"185":4.295203685760498,"186":-4.318730354309082,"187":-1.049468755722046,"188":-4.851692199707031,"189":-0.6076974272727966,"190":0.579274594783783,"191":-1.008819818496704,"192":-0.16220732033252716,"193":0.4507904052734375,"194":-4.918087005615234,"195":-2.8864731788635254,"196":2.1981422901153564,"197":1.0968468189239502,"198":-1.6708524227142334,"199":2.4497950077056885,"200":3.5768849849700928,"201":0.9194402098655701,"202":-1.8126012086868286,"203":-7.0661940574646,"204":0.9778316020965576,"205":-0.13908866047859192,"206":0.9631574749946594,"207":3.0420119762420654,"208":-4.761678695678711,"209":1.174759864807129,"210":2.4348254203796387,"211":0.29432928562164307,"212":0.3110772967338562,"213":0.523175835609436,"214":-0.5663151144981384,"215":1.542343020439148,"216":-1.3577638864517212,"217":1.095227837562561,"218":-2.1301634311676025,"219":-0.2143883854150772,"220":-0.09886991232633591,"221":0.20065981149673462,"222":-0.6625990867614746,"223":-1.7005757093429565,"224":-0.7048678994178772,"225":-1.7935123443603516,"226":-0.5689448118209839,"227":-2.4390039443969727,"228":-0.4651922285556793,"229":-0.5772507190704346,"230":-0.7850328683853149,"231":-0.9063003063201904,"232":-2.1568126678466797,"233":-4.18510627746582,"234":-1.2199658155441284,"235":-2.560009002685547,"236":1.0075596570968628,"237":0.2898719906806946,"238":0.6443390846252441,"239":-0.01879577338695526,"240":-0.4740951359272003,"241":-0.8115321397781372,"242":0.8450401425361633,"243":-1.4813425540924072,"244":-0.4131327271461487,"245":0.5891925692558289,"246":-0.25378838181495667,"247":-0.7887229919433594,"248":1.2820549011230469,"249":-0.1396263986825943,"250":-0.6728606820106506,"251":-0.9530368447303772,"252":-0.26528045535087585,"253":-1.0212420225143433,"254":-1.5062713623046875,"255":1.5150662660598755,"256":-0.1559041291475296,"257":-0.3882688581943512,"258":-0.9957953691482544,"259":-0.46661338210105896,"260":-2.3837077617645264,"261":-1.1287175416946411,"262":2.0366086959838867,"263":-0.494144469499588,"264":0.639705240726471,"265":0.42594894766807556,"266":0.12404841929674149,"267":-2.1234350204467773,"268":1.8670727014541626,"269":-0.5590488314628601,"270":2.872164726257324,"271":0.07142787426710129,"272":-0.42443597316741943,"273":0.8543969988822937,"274":2.164590358734131,"275":1.093584656715393,"276":-1.0741504430770874,"277":-0.1833629608154297,"278":-0.0878109261393547,"279":-1.1612581014633179,"280":0.8942645192146301,"281":-0.7365309596061707,"282":0.20142222940921783,"283":1.984481930732727,"284":-2.910994291305542,"285":-1.1028738021850586,"286":-3.717853546142578,"287":4.290146350860596,"288":-2.8689091205596924,"289":4.1063456535339355,"290":-3.5752439498901367,"291":-3.4046523571014404,"292":-4.04319953918457,"293":6.113890171051025,"294":-3.6680076122283936,"295":-2.1591625213623047,"296":-3.9055988788604736,"297":4.643815040588379,"298":-5.186075210571289,"299":-3.508038282394409,"300":1.5493673086166382,"301":3.7020318508148193,"302":-3.4445431232452393,"303":4.636273384094238,"304":4.3008952140808105,"305":4.025501251220703,"306":-3.5607054233551025,"307":-4.199332237243652,"308":2.7841830253601074,"309":-3.756887435913086,"310":-5.0084943771362305,"311":-3.3207921981811523,"312":-2.1993601322174072,"313":5.228506088256836,"314":1.5657179355621338,"315":1.5625678300857544,"316":-1.165838360786438,"317":-4.578396797180176,"318":-1.6441888809204102,"319":6.903384685516357,"320":-0.6291270852088928,"321":0.5378023386001587,"322":-6.1029744148254395,"323":3.5930206775665283,"324":-2.0419375896453857,"325":-2.3036389350891113,"326":-2.0858137607574463,"327":-2.031345844268799,"328":-0.22061197459697723,"329":-0.7732189297676086,"330":1.6984437704086304,"331":2.2182469367980957,"332":-0.975422203540802,"333":-0.07480507344007492,"334":-1.9152214527130127,"335":-3.855133295059204,"336":-2.583986520767212,"337":-2.6508240699768066,"338":-1.1572636365890503,"339":1.5695194005966187,"340":-2.706629991531372,"341":3.1436922550201416,"342":-2.8372409343719482,"343":0.5402374863624573,"344":-2.326836109161377,"345":1.944494366645813,"346":-2.774808883666992,"347":-2.8133201599121094,"348":-1.9750720262527466,"349":1.1574389934539795,"350":-2.574552536010742,"351":-3.9606287479400635,"352":3.525240182876587,"353":6.113107204437256,"354":-2.2642757892608643,"355":1.7993288040161133,"356":1.089646577835083,"357":4.677917957305908,"358":-5.825038909912109,"359":-2.5353586673736572,"360":2.891862630844116,"361":-0.9144343733787537,"362":-0.6278467774391174,"363":3.4345545768737793,"364":-1.691888689994812,"365":2.830310344696045,"366":1.869890570640564,"367":1.0729234218597412,"368":-0.2486543506383896,"369":2.228940963745117,"370":2.7766244411468506,"371":10.176360130310059,"372":0.9005149602890015,"373":6.205101490020752,"374":-4.831651210784912,"375":-2.1344306468963623,"376":-4.343988418579102,"377":0.12244618684053421,"378":-6.470157623291016,"379":-3.718726873397827,"380":4.070737361907959,"381":-1.267954707145691,"382":0.5679612159729004,"383":-8.307103157043457,"384":2.106403350830078,"385":-0.7260789275169373,"386":-4.683572769165039,"387":-2.91034197807312,"388":5.850506782531738,"389":-3.3836405277252197,"390":-1.5861786603927612,"391":-2.0979840755462646,"392":1.4204199314117432,"393":-2.8397231101989746,"394":1.408759593963623,"395":-2.196838617324829,"396":4.78919792175293,"397":-1.8746660947799683,"398":1.9145848751068115,"399":5.147359848022461,"400":0.08379721641540527,"401":1.7948834896087646,"402":3.653934955596924,"403":2.7176201343536377,"404":-5.430294036865234,"405":-3.1975042819976807,"406":4.733520030975342,"407":-2.216294050216675,"408":-4.225008487701416,"409":-1.6856480836868286,"410":3.2646753787994385,"411":0.9763701558113098,"412":-2.7783470153808594,"413":-0.07257620245218277,"414":-3.4757862091064453,"415":2.704432249069214,"416":-3.955624580383301,"417":-2.760622262954712,"418":3.0540411472320557,"419":-3.37807297706604,"420":6.034148693084717,"421":-0.6624801754951477,"422":3.1099071502685547,"423":-1.382677674293518,"424":1.0195095539093018,"425":2.310377836227417,"426":1.0680499076843262,"427":2.179154396057129,"428":6.042562007904053,"429":5.4534173011779785,"430":-2.946276903152466,"431":-4.355863094329834,"432":3.5231688022613525,"433":-3.2132861614227295,"434":-1.3517576456069946,"435":-5.8932719230651855,"436":5.0407257080078125,"437":-0.5482690334320068,"438":-2.6658055782318115,"439":-0.6962628364562988,"440":-3.1609561443328857,"441":-3.2509875297546387,"442":-3.512223243713379,"443":-6.338875770568848,"444":3.375647783279419,"445":-2.1699881553649902,"446":6.5376458168029785,"447":-2.8307363986968994,"448":0.0871058851480484,"449":4.6170573234558105,"450":11.102518081665039,"451":4.316617488861084,"452":-4.289844036102295,"453":4.550227165222168,"454":-0.4153839349746704,"455":-2.580620765686035,"456":-4.310678005218506,"457":-0.9796005487442017,"458":-1.0249704122543335,"459":-3.366417169570923,"460":2.039259672164917,"461":-6.444153308868408,"462":8.176667213439941,"463":9.928466796875,"464":-2.494940757751465,"465":-4.45186710357666,"466":-3.6532440185546875,"467":-5.0387139320373535,"468":-0.061069976538419724,"469":-2.7848880290985107,"470":3.9193196296691895,"471":-2.6108977794647217,"472":2.4931135177612305,"473":1.0974160432815552,"474":2.3750898838043213,"475":-0.6092604398727417,"476":3.588181734085083,"477":3.4644362926483154,"478":1.1398464441299438,"479":0.4789026379585266,"480":1.6128069162368774,"481":2.104793071746826,"482":0.1367693692445755,"483":-2.4122254848480225,"484":3.655942440032959,"485":-1.2929837703704834,"486":-2.7799510955810547,"487":2.04176926612854,"488":-3.4351515769958496,"489":2.6173644065856934,"490":-4.9656453132629395,"491":-0.6981893181800842,"492":-0.7849339842796326,"493":1.000240445137024,"494":-0.07991838455200195,"495":0.9543764591217041,"496":-2.6038331985473633,"497":5.311810493469238,"498":-4.4154887199401855,"499":-3.0861549377441406,"500":-2.6407291889190674,"501":5.175600528717041,"502":-4.686553955078125,"503":0.02119826152920723,"504":-5.610401153564453,"505":6.386687755584717,"506":-3.044640302658081,"507":-9.540600776672363,"508":-1.846058964729309,"509":-0.00789007730782032,"510":-1.5799269676208496,"511":1.8113632202148438,"512":2.5237503051757812,"513":4.45405912399292,"514":-5.481018543243408,"515":1.9851431846618652,"516":-1.3773934841156006,"517":-4.924290657043457,"518":-1.9650379419326782,"519":0.548538863658905,"520":1.8421837091445923,"521":-2.9607419967651367,"522":2.389308214187622,"523":-1.2890809774398804,"524":2.7251150608062744,"525":0.05546868219971657,"526":2.088412284851074,"527":1.5061283111572266,"528":1.8982702493667603,"529":2.815054416656494,"530":-1.25211501121521,"531":-0.7017612457275391,"532":1.9246737957000732,"533":1.4032822847366333,"534":-4.748684883117676,"535":-4.4050726890563965,"536":1.4986984729766846,"537":-3.099057197570801,"538":-3.5795724391937256,"539":0.09575425833463669,"540":4.9840521812438965,"541":-0.07535864412784576,"542":-2.2857561111450195,"543":0.4648672938346863,"544":1.9289761781692505,"545":2.06021785736084,"546":-2.214477777481079,"547":-2.442258596420288,"548":0.7830297350883484,"549":-3.823223829269409,"550":5.271872043609619,"551":-2.001950740814209,"552":4.019377708435059,"553":0.46806806325912476,"554":0.016070276498794556,"555":1.0364675521850586,"556":-1.6576787233352661,"557":1.5581811666488647,"558":3.1864240169525146,"559":4.806086540222168,"560":-1.4315050840377808,"561":-0.2257024049758911,"562":1.7083255052566528,"563":0.5409807562828064,"564":-1.2165168523788452,"565":-2.5731236934661865,"566":8.800128936767578,"567":0.07623933255672455,"568":-1.4842133522033691,"569":-0.36009910702705383,"570":-1.2343405485153198,"571":-3.1657521724700928,"572":-7.398306369781494,"573":-3.2633097171783447,"574":-2.928706407546997,"575":1.9644851684570312,"576":4.834442615509033,"577":-3.768484354019165,"578":-2.2254745960235596,"579":0.16108261048793793,"580":-5.237888336181641,"581":-6.01004695892334,"582":-1.0182241201400757,"583":4.279697418212891,"584":-1.3870511054992676,"585":-2.8714990615844727,"586":2.8677268028259277,"587":1.7407379150390625,"588":-3.5872581005096436,"589":-0.5780170559883118,"590":1.566572666168213,"591":-2.5532336235046387,"592":-0.24746154248714447,"593":2.3551862239837646,"594":7.131223678588867,"595":-1.8268755674362183,"596":-7.165122985839844,"597":-7.077606201171875,"598":-3.8751556873321533,"599":-2.967958927154541,"600":2.9362258911132812,"601":-2.095170736312866,"602":1.0857136249542236,"603":-6.139776706695557,"604":2.0813329219818115,"605":3.3557145595550537,"606":0.5785382986068726,"607":2.9124269485473633,"608":-3.0931737422943115,"609":7.4828643798828125,"610":2.9938769340515137,"611":-5.454467296600342,"612":-1.073853850364685,"613":-5.256078243255615,"614":5.657956600189209,"615":-4.095419883728027,"616":-4.664106845855713,"617":-1.6970020532608032,"618":1.194523811340332,"619":2.106363296508789,"620":-8.674260139465332,"621":-5.740523815155029,"622":-4.718916416168213,"623":-3.9775378704071045,"624":1.0807746648788452,"625":1.0832403898239136,"626":-1.7315434217453003,"627":0.9374783635139465,"628":-0.9741413593292236,"629":2.8163883686065674,"630":-0.8322492837905884,"631":-0.8300525546073914,"632":-1.8032939434051514,"633":-2.7634336948394775,"634":1.0733826160430908,"635":-1.5246644020080566,"636":-0.0016698670806363225,"637":-0.24071945250034332,"638":0.5642416477203369,"639":-0.07751405984163284,"640":-1.9801948070526123,"641":1.2604072093963623,"642":0.6974728107452393,"643":0.9395341277122498,"644":-0.1636842042207718,"645":-0.5812778472900391,"646":1.057480812072754,"647":0.9219419956207275,"648":1.8804967403411865,"649":0.1622288078069687,"650":-0.4182053804397583,"651":-0.629418671131134,"652":-1.3862394094467163,"653":-0.22163556516170502,"654":-0.02300989255309105,"655":1.523194670677185,"656":0.3928948640823364,"657":-2.515902280807495,"658":-0.7125290036201477,"659":-0.4659876227378845,"660":1.2898509502410889,"661":-0.7668953537940979,"662":-0.5812786817550659,"663":-0.9567064642906189,"664":1.441190481185913,"665":1.1407424211502075,"666":0.46242550015449524,"667":0.8717061877250671,"668":0.11783159524202347,"669":0.29193952679634094,"670":-0.684235155582428,"671":-1.1110363006591797,"672":1.3496108055114746,"673":1.7759519815444946,"674":0.18921232223510742,"675":-0.3432070016860962,"676":0.059224147349596024,"677":0.015799466520547867,"678":-0.05151005834341049,"679":0.05996188893914223,"680":-0.003037446178495884,"681":0.061748165637254715,"682":0.03135887160897255,"683":-0.058972761034965515,"684":-0.019076235592365265,"685":0.017077051103115082,"686":-0.05891484394669533,"687":-0.005644722376018763,"688":-0.05610307306051254,"689":-0.07654070109128952,"690":-0.06407912820577621,"691":-0.04238428547978401,"692":0.05419304221868515,"693":-0.020261745899915695,"694":0.025766175240278244,"695":0.030521869659423828,"696":0.000874555844347924,"697":-0.05455027148127556,"698":-0.013921915553510189,"699":-0.04614565148949623,"700":0.0514378659427166,"701":0.05412430688738823}},"hiddenLayers":[{"inputMatrix":{"rows":20,"columns":26,"weights":{"0":0.24046485126018524,"1":0.28410011529922485,"2":0.23374633491039276,"3":0.07012133300304413,"4":0.17622116208076477,"5":1.9769954681396484,"6":-0.2086479812860489,"7":-0.04830367490649223,"8":0.3884296119213104,"9":-0.2559182941913605,"10":1.0921449661254883,"11":-0.5332909822463989,"12":-0.5737164616584778,"13":0.3492043614387512,"14":0.7207521796226501,"15":1.071916103363037,"16":-1.0144264698028564,"17":1.4169096946716309,"18":0.7238103747367859,"19":-0.1926855742931366,"20":0.10611959546804428,"21":-2.2133426666259766,"22":0.7158669233322144,"23":1.1257152557373047,"24":0.1857258826494217,"25":0.663227915763855,"26":0.7538601756095886,"27":0.5365790128707886,"28":-0.9829788208007812,"29":0.18982093036174774,"30":-0.37869080901145935,"31":0.04927821829915047,"32":-0.13607612252235413,"33":0.90339195728302,"34":-0.7831932306289673,"35":-0.7546612024307251,"36":-0.5802471041679382,"37":-0.048908911645412445,"38":0.17464573681354523,"39":0.23709572851657867,"40":-0.3620131015777588,"41":-0.6306658387184143,"42":-1.5443116426467896,"43":0.6120564937591553,"44":0.36262479424476624,"45":0.3228367567062378,"46":0.137592151761055,"47":0.14099334180355072,"48":0.1861421763896942,"49":-0.3412609398365021,"50":0.8721979260444641,"51":0.30925390124320984,"52":0.4025980234146118,"53":0.6160193681716919,"54":-0.03921450674533844,"55":0.7435324192047119,"56":0.19303534924983978,"57":0.761103093624115,"58":-0.9676796197891235,"59":-0.2123604267835617,"60":-0.3941744863986969,"61":0.024724667891860008,"62":0.7148117423057556,"63":0.10500607639551163,"64":-1.1424793004989624,"65":-0.3540034592151642,"66":0.8247442245483398,"67":0.7121883630752563,"68":-0.7192431092262268,"69":1.062142252922058,"70":0.6182681918144226,"71":0.0834585577249527,"72":-0.26940247416496277,"73":-1.7938408851623535,"74":0.3466091752052307,"75":0.384598970413208,"76":0.3822944760322571,"77":0.42703455686569214,"78":0.20577993988990784,"79":-0.2953484058380127,"80":1.0110092163085938,"81":-0.20901167392730713,"82":0.7499895691871643,"83":0.5149773359298706,"84":-0.08833005279302597,"85":-0.8609670400619507,"86":1.7244539260864258,"87":0.7119624018669128,"88":1.5554531812667847,"89":-0.09826886653900146,"90":-0.37119004130363464,"91":0.5067941546440125,"92":0.3147793114185333,"93":0.3455410599708557,"94":0.8763635754585266,"95":0.2424842119216919,"96":0.3009571135044098,"97":0.16493602097034454,"98":-0.1380736082792282,"99":-1.0071349143981934,"100":0.12579697370529175,"101":1.8143187761306763,"102":-0.16266684234142303,"103":1.6132639646530151,"104":-0.09632067382335663,"105":0.07323449105024338,"106":0.302634596824646,"107":0.13516364991664886,"108":0.8622821569442749,"109":1.4592933654785156,"110":-0.09478939324617386,"111":-0.2774587869644165,"112":0.25895965099334717,"113":0.05491010844707489,"114":1.262845516204834,"115":-0.7995886206626892,"116":0.09111564606428146,"117":0.5781406760215759,"118":-1.1217504739761353,"119":-0.321755975484848,"120":-0.3445696532726288,"121":0.007444261107593775,"122":0.3804183900356293,"123":-0.7224714756011963,"124":1.9210540056228638,"125":-0.4020019471645355,"126":0.9100902080535889,"127":1.8781020641326904,"128":1.1576411724090576,"129":-1.2352780103683472,"130":-0.24486985802650452,"131":-0.06482193619012833,"132":0.1058359146118164,"133":0.3885592222213745,"134":-0.2894066870212555,"135":-0.03204956650733948,"136":-0.7430610060691833,"137":-0.8173676133155823,"138":-0.03667648136615753,"139":-0.6767029762268066,"140":0.6697942018508911,"141":0.3153359591960907,"142":-0.3343603312969208,"143":0.00037282428820617497,"144":0.6625603437423706,"145":0.25191929936408997,"146":-0.9588127732276917,"147":-0.11145436763763428,"148":0.6342414617538452,"149":-0.2232864499092102,"150":-0.16366875171661377,"151":0.03885643556714058,"152":0.5812714695930481,"153":-0.048751335591077805,"154":-0.7018581628799438,"155":-0.2614724636077881,"156":0.419961154460907,"157":-0.47867637872695923,"158":-0.4592093229293823,"159":-1.1008626222610474,"160":0.6633152961730957,"161":2.0609068870544434,"162":1.0252556800842285,"163":-0.6061729788780212,"164":-0.7656363248825073,"165":-0.7884054183959961,"166":0.5699862241744995,"167":-1.1922621726989746,"168":1.2955700159072876,"169":1.4046827554702759,"170":-0.021943744271993637,"171":-1.3940402269363403,"172":0.2104279100894928,"173":0.19684240221977234,"174":-0.9890446066856384,"175":-0.5530048608779907,"176":0.660437285900116,"177":0.49357903003692627,"178":0.5213803052902222,"179":1.3744633197784424,"180":1.4506769180297852,"181":-0.7438220977783203,"182":-0.4379955232143402,"183":0.8283422589302063,"184":0.611160159111023,"185":-0.018169023096561432,"186":-0.17081409692764282,"187":-0.21939918398857117,"188":0.059279441833496094,"189":1.9119349718093872,"190":0.6603860855102539,"191":1.0359582901000977,"192":-1.5438153743743896,"193":1.2882881164550781,"194":-0.4710356593132019,"195":0.4391431212425232,"196":-1.1177746057510376,"197":-0.5112698078155518,"198":0.3907867670059204,"199":0.6503607630729675,"200":1.14413583278656,"201":0.3830491304397583,"202":0.2520066201686859,"203":-0.17138053476810455,"204":-0.841738224029541,"205":-0.8879476189613342,"206":-0.4854033291339874,"207":-0.2965702712535858,"208":-2.419865369796753,"209":0.3046216070652008,"210":0.7119221091270447,"211":0.09296093881130219,"212":0.0848001092672348,"213":-0.19053596258163452,"214":-0.42818135023117065,"215":-1.2356512546539307,"216":-0.538894534111023,"217":0.17187775671482086,"218":0.795822024345398,"219":1.596896767616272,"220":0.16639575362205505,"221":0.004598245490342379,"222":0.9748204350471497,"223":-0.20137625932693481,"224":0.04714273288846016,"225":-0.572839081287384,"226":-0.25197967886924744,"227":-0.3736843168735504,"228":-0.302815705537796,"229":-0.0852990597486496,"230":-1.1277214288711548,"231":-0.7720516920089722,"232":-2.0012197494506836,"233":-2.116011142730713,"234":-0.5997939109802246,"235":-1.458196997642517,"236":1.1224194765090942,"237":-0.9103342890739441,"238":0.8819316029548645,"239":-0.21274828910827637,"240":0.18862055242061615,"241":-0.8683873414993286,"242":0.02842290699481964,"243":-0.4981807768344879,"244":0.7254576086997986,"245":0.21197886765003204,"246":0.5928544998168945,"247":0.907947838306427,"248":0.785036563873291,"249":-0.08909781277179718,"250":-0.13667482137680054,"251":-1.2135313749313354,"252":-1.277546763420105,"253":-0.9892100691795349,"254":-0.22194615006446838,"255":1.1564152240753174,"256":-0.2731403112411499,"257":0.6193072199821472,"258":-0.6327770948410034,"259":-0.4964244067668915,"260":-0.3080426752567291,"261":-0.2457064539194107,"262":1.385555624961853,"263":-0.35346749424934387,"264":0.9957701563835144,"265":0.6008937954902649,"266":0.5872334837913513,"267":0.09387398511171341,"268":0.4209069311618805,"269":0.24825075268745422,"270":0.3937617838382721,"271":-0.7414411306381226,"272":0.7224052548408508,"273":1.1956020593643188,"274":-1.334732174873352,"275":-0.9914358258247375,"276":-1.1659348011016846,"277":0.241665318608284,"278":0.07508113980293274,"279":-1.5825855731964111,"280":0.9937514662742615,"281":-0.6294762492179871,"282":-0.19006988406181335,"283":0.8607739210128784,"284":0.3694615066051483,"285":0.059667475521564484,"286":-0.10733527690172195,"287":-1.2397222518920898,"288":0.5958653092384338,"289":-1.4765409231185913,"290":1.4167449474334717,"291":0.7658377289772034,"292":1.770330548286438,"293":-0.22001388669013977,"294":1.0975406169891357,"295":0.992946445941925,"296":0.4154539704322815,"297":-0.3567964434623718,"298":1.3985341787338257,"299":1.243249773979187,"300":-0.45343032479286194,"301":-1.0865586996078491,"302":2.1404776573181152,"303":0.0612434558570385,"304":-1.8035613298416138,"305":0.4087923467159271,"306":0.10470433533191681,"307":0.7455188035964966,"308":-1.2060184478759766,"309":0.7690731287002563,"310":0.47990283370018005,"311":0.3375132083892822,"312":-0.9079307317733765,"313":0.02853209339082241,"314":0.9234034419059753,"315":0.43815839290618896,"316":0.3382399082183838,"317":-0.08130984008312225,"318":-0.268973171710968,"319":0.29276663064956665,"320":0.12504161894321442,"321":0.31764599680900574,"322":-0.5236374139785767,"323":0.8373485803604126,"324":-0.1301269382238388,"325":-0.1027996689081192,"326":-0.3879571855068207,"327":-0.8549219965934753,"328":-0.025448694825172424,"329":-0.559561550617218,"330":-0.33505523204803467,"331":-0.4226895272731781,"332":0.4961272180080414,"333":0.04308995604515076,"334":-0.8804216384887695,"335":-0.854694664478302,"336":-0.5298743844032288,"337":-1.393852949142456,"338":-1.5431185960769653,"339":1.1183282136917114,"340":0.45756539702415466,"341":1.3405213356018066,"342":-0.18233102560043335,"343":0.23263660073280334,"344":-2.276395797729492,"345":-0.5460854768753052,"346":-0.7864835858345032,"347":-1.2033193111419678,"348":0.2603536546230316,"349":0.8304322361946106,"350":-1.3843979835510254,"351":-0.677563488483429,"352":1.029443621635437,"353":-0.49789533019065857,"354":-2.0722577571868896,"355":0.03902866318821907,"356":1.3976303339004517,"357":0.24728532135486603,"358":-1.1185517311096191,"359":-1.0247677564620972,"360":0.5868338346481323,"361":0.1297978013753891,"362":-0.9836896061897278,"363":-0.4289091229438782,"364":-1.1735751628875732,"365":0.7588940262794495,"366":0.49087655544281006,"367":1.7131695747375488,"368":-0.04977116733789444,"369":0.5395979285240173,"370":-1.7418758869171143,"371":-0.721757709980011,"372":-0.49854129552841187,"373":-0.6571961641311646,"374":0.3368615210056305,"375":0.9462830424308777,"376":-1.6582118272781372,"377":-1.165740966796875,"378":1.7042840719223022,"379":0.24793367087841034,"380":-0.6302312612533569,"381":-0.11504582315683365,"382":1.1087732315063477,"383":0.40307193994522095,"384":-1.215708613395691,"385":-0.7877907156944275,"386":0.29548510909080505,"387":-0.10665107518434525,"388":-0.8175666332244873,"389":-0.32269078493118286,"390":-0.7729616165161133,"391":0.7317008972167969,"392":0.2907586991786957,"393":0.2186342030763626,"394":-0.28094857931137085,"395":0.1095573902130127,"396":-0.6631391048431396,"397":0.06446412205696106,"398":-1.4116026163101196,"399":0.03924582153558731,"400":-0.14216941595077515,"401":-0.7695682644844055,"402":-0.10782908648252487,"403":0.0032079911325126886,"404":0.2759157419204712,"405":0.10653645545244217,"406":-0.1736954301595688,"407":-0.3579612374305725,"408":0.011490216478705406,"409":0.2441985309123993,"410":-0.85804283618927,"411":-1.129859447479248,"412":0.8462471961975098,"413":0.3836787939071655,"414":-0.16610592603683472,"415":-0.4633209705352783,"416":0.7069035172462463,"417":0.8174571394920349,"418":-0.4628509283065796,"419":0.7515115737915039,"420":-0.2855328321456909,"421":0.42225363850593567,"422":-0.7046218514442444,"423":-0.052064552903175354,"424":-0.8372687697410583,"425":-0.1411411464214325,"426":0.5730714201927185,"427":-0.8434532880783081,"428":-0.7530704140663147,"429":-0.6343358755111694,"430":0.2615894377231598,"431":0.932616651058197,"432":-1.2921937704086304,"433":0.9631023406982422,"434":1.2209829092025757,"435":0.021670429036021233,"436":-0.4452069401741028,"437":-1.029661774635315,"438":0.4334850013256073,"439":0.481441468000412,"440":0.10700366646051407,"441":0.5306620597839355,"442":-0.009759877808392048,"443":0.9008504152297974,"444":0.4440707266330719,"445":0.48629799485206604,"446":-0.6750010848045349,"447":-0.11554986238479614,"448":-0.21881720423698425,"449":0.4083132743835449,"450":-0.23080436885356903,"451":0.4267519414424896,"452":-0.3495018780231476,"453":-0.30875709652900696,"454":-0.6070678234100342,"455":-0.7684175968170166,"456":0.6581068634986877,"457":-0.3050338625907898,"458":0.8252649903297424,"459":0.15516945719718933,"460":-0.3845861256122589,"461":0.6391540169715881,"462":-1.4319818019866943,"463":-0.13136093318462372,"464":-1.4823124408721924,"465":-0.49294403195381165,"466":0.2503482699394226,"467":-0.31714746356010437,"468":0.017191974446177483,"469":0.0117579884827137,"470":-0.9094735980033875,"471":0.4145538806915283,"472":-0.5653178691864014,"473":1.0757606029510498,"474":-0.5510133504867554,"475":-0.4206797480583191,"476":-0.8423285484313965,"477":-0.7892516851425171,"478":0.7199384570121765,"479":-0.30708375573158264,"480":-0.44299617409706116,"481":-0.19026677310466766,"482":0.788106381893158,"483":0.48481303453445435,"484":-1.0166082382202148,"485":1.1279376745224,"486":1.0816729068756104,"487":-0.5008235573768616,"488":0.5319221019744873,"489":-1.5563732385635376,"490":0.7387629151344299,"491":0.8292797207832336,"492":0.5656830668449402,"493":-0.5109489560127258,"494":0.28351128101348877,"495":2.5467591285705566,"496":0.22640842199325562,"497":1.1314170360565186,"498":-1.5147923231124878,"499":0.8584897518157959,"500":-0.5907623767852783,"501":0.34466353058815,"502":-1.0985766649246216,"503":0.00005845585110364482,"504":-0.48392239212989807,"505":-1.1204569339752197,"506":-0.48406872153282166,"507":-0.16409213840961456,"508":-0.299808144569397,"509":-0.5372315049171448,"510":-0.28073781728744507,"511":0.2236771136522293,"512":0.7537111043930054,"513":0.6966327428817749,"514":-0.8599345088005066,"515":-1.2617145776748657,"516":-0.5573481321334839,"517":-0.031132327392697334,"518":0.5012790560722351,"519":0.1485670953989029}},"inputHidden":{"rows":20,"columns":20,"weights":{"0":1.2060939073562622,"1":1.248342514038086,"2":0.2637201249599457,"3":-0.29241085052490234,"4":1.3774348497390747,"5":1.2026073932647705,"6":-0.07581275701522827,"7":1.707284927368164,"8":-0.10731562227010727,"9":-0.15686531364917755,"10":-0.33473512530326843,"11":-0.6574344635009766,"12":-1.909759759902954,"13":0.18029893934726715,"14":0.21369294822216034,"15":-3.180863618850708,"16":-2.625854253768921,"17":1.1739774942398071,"18":-1.0214238166809082,"19":-3.0558576583862305,"20":0.6802354454994202,"21":1.0589903593063354,"22":0.13549935817718506,"23":-0.870520293712616,"24":0.15833063423633575,"25":-1.1415586471557617,"26":2.038362979888916,"27":2.0755724906921387,"28":-1.9827626943588257,"29":0.3009926974773407,"30":-0.4368996322154999,"31":-0.2725684642791748,"32":-3.8969125747680664,"33":-1.8318958282470703,"34":0.23047588765621185,"35":-1.6428922414779663,"36":-1.17778742313385,"37":0.09594915062189102,"38":-0.8849091529846191,"39":-1.1654140949249268,"40":0.834365725517273,"41":1.4587616920471191,"42":0.44669151306152344,"43":0.8058050274848938,"44":0.06847123056650162,"45":-0.3330155909061432,"46":0.2791781425476074,"47":1.6673294305801392,"48":-1.893908143043518,"49":-1.9644440412521362,"50":0.41989457607269287,"51":-0.966833233833313,"52":-2.98283052444458,"53":-1.5962766408920288,"54":0.36090055108070374,"55":-2.064509391784668,"56":-1.253173828125,"57":0.9087001085281372,"58":-0.6069443225860596,"59":-0.4795566499233246,"60":0.043625131249427795,"61":1.2916499376296997,"62":0.8294605016708374,"63":0.42840343713760376,"64":-0.27569708228111267,"65":0.7696593999862671,"66":0.01216339785605669,"67":0.40596023201942444,"68":-1.3926807641983032,"69":-0.5578548312187195,"70":1.4578853845596313,"71":0.11900710314512253,"72":-1.5357863903045654,"73":0.7053537368774414,"74":-0.21948188543319702,"75":-2.4977846145629883,"76":-0.5450729727745056,"77":0.28897103667259216,"78":-1.0083833932876587,"79":-1.4110338687896729,"80":-0.7485805749893188,"81":-1.126998782157898,"82":-0.014761701226234436,"83":0.9161688685417175,"84":-0.22855354845523834,"85":-0.5219038128852844,"86":-0.5392417907714844,"87":0.8756849765777588,"88":0.4521372318267822,"89":-0.22609862685203552,"90":-0.2020961344242096,"91":-0.7652744650840759,"92":-0.9522976279258728,"93":-0.7117842435836792,"94":1.1289405822753906,"95":0.2694278955459595,"96":-0.3460363447666168,"97":0.47798454761505127,"98":-0.9781861305236816,"99":0.2808651924133301,"100":-2.9976413249969482,"101":-2.2963671684265137,"102":-2.999211311340332,"103":1.8323255777359009,"104":0.8331929445266724,"105":0.9893465042114258,"106":-1.9063007831573486,"107":-0.816108763217926,"108":1.0033481121063232,"109":-0.5466384887695312,"110":-0.9698030948638916,"111":-1.6035575866699219,"112":0.9726831912994385,"113":-1.2839515209197998,"114":0.21970577538013458,"115":1.0977146625518799,"116":1.1832464933395386,"117":0.3582468330860138,"118":-4.229508399963379,"119":-0.2114964872598648,"120":-0.6658845543861389,"121":-0.4092634618282318,"122":-1.1025151014328003,"123":1.2097163200378418,"124":0.5433739423751831,"125":2.1817102432250977,"126":0.6735995411872864,"127":-0.14956194162368774,"128":0.39357367157936096,"129":0.7297106385231018,"130":0.18234315514564514,"131":-1.7104705572128296,"132":0.7268103361129761,"133":0.26624470949172974,"134":0.3173060417175293,"135":0.8068078756332397,"136":0.2122955322265625,"137":2.063857078552246,"138":-0.7009804248809814,"139":0.3742469847202301,"140":-0.19806355237960815,"141":-0.2607923746109009,"142":-0.6381092071533203,"143":0.6463958024978638,"144":0.5724737644195557,"145":1.8880817890167236,"146":0.19384227693080902,"147":1.063751459121704,"148":0.12144526094198227,"149":0.44642478227615356,"150":-1.1082645654678345,"151":-1.5971002578735352,"152":-0.5087612271308899,"153":-0.7489767670631409,"154":0.47581472992897034,"155":2.2253756523132324,"156":0.027669992297887802,"157":0.36168596148490906,"158":-1.495904564857483,"159":-0.6759591698646545,"160":-0.23519541323184967,"161":0.1401185840368271,"162":-0.8036255836486816,"163":1.0660839080810547,"164":0.9220001101493835,"165":1.9463868141174316,"166":-0.022335097193717957,"167":-1.5703061819076538,"168":0.8035318851470947,"169":-0.09539192914962769,"170":0.7501606345176697,"171":-1.759407877922058,"172":2.157503604888916,"173":-0.4098319709300995,"174":-0.3610387444496155,"175":1.025534987449646,"176":0.2999325394630432,"177":0.8180606961250305,"178":-0.5821677446365356,"179":0.4107871949672699,"180":-0.4975467622280121,"181":0.5804694890975952,"182":-0.1727418601512909,"183":0.18723036348819733,"184":0.6148141622543335,"185":0.2929423749446869,"186":-0.8741059899330139,"187":0.09907016158103943,"188":-0.3338426947593689,"189":-0.6183234453201294,"190":-0.11064671725034714,"191":-0.6700712442398071,"192":-0.9172441959381104,"193":1.2828415632247925,"194":-0.16074664890766144,"195":-0.6657846570014954,"196":0.5139691829681396,"197":-0.3688035011291504,"198":1.1141060590744019,"199":0.42319953441619873,"200":0.1879352182149887,"201":0.3967170715332031,"202":1.1265236139297485,"203":0.18827365338802338,"204":-1.5809643268585205,"205":-2.4028637409210205,"206":0.39674142003059387,"207":-1.0728195905685425,"208":0.7088063359260559,"209":-0.36378103494644165,"210":1.5825105905532837,"211":1.6318049430847168,"212":1.2330284118652344,"213":-0.5971406698226929,"214":-0.09476196765899658,"215":-1.522369384765625,"216":-0.7294996976852417,"217":1.759080171585083,"218":0.553784191608429,"219":1.1803258657455444,"220":0.33258381485939026,"221":0.28275761008262634,"222":-0.0069137089885771275,"223":0.27186980843544006,"224":-0.3887428045272827,"225":0.17145216464996338,"226":0.6580923795700073,"227":-2.1917786598205566,"228":0.68259596824646,"229":0.5860151052474976,"230":1.5339932441711426,"231":1.0115495920181274,"232":1.154383659362793,"233":0.29443830251693726,"234":0.2833091914653778,"235":1.6986606121063232,"236":-0.44341495633125305,"237":1.0496848821640015,"238":-0.8378574848175049,"239":0.1287127584218979,"240":-0.8362648487091064,"241":0.08591082692146301,"242":-2.089738607406616,"243":2.4857702255249023,"244":-1.1525129079818726,"245":1.5599802732467651,"246":1.5443142652511597,"247":-2.0984554290771484,"248":2.5563881397247314,"249":-0.5226686000823975,"250":2.405508041381836,"251":1.4081381559371948,"252":2.859445571899414,"253":0.30855101346969604,"254":-0.0780482143163681,"255":2.4716873168945312,"256":0.07070811837911606,"257":-1.0230143070220947,"258":-0.5540115833282471,"259":1.6259875297546387,"260":-0.8505606055259705,"261":0.04439351335167885,"262":1.1314433813095093,"263":-2.139789581298828,"264":0.06992795318365097,"265":2.378356695175171,"266":-2.5299758911132812,"267":-2.7099294662475586,"268":-0.6907356977462769,"269":-1.4703929424285889,"270":0.5919883251190186,"271":0.694736897945404,"272":0.4896088242530823,"273":1.3924773931503296,"274":-0.7498747706413269,"275":-0.1582663506269455,"276":2.3108527660369873,"277":0.6441303491592407,"278":1.7696599960327148,"279":0.5995033383369446,"280":-0.3830699026584625,"281":0.7496881484985352,"282":0.48606163263320923,"283":-1.884498119354248,"284":0.18951423466205597,"285":-2.4474141597747803,"286":-1.4039474725723267,"287":1.1965094804763794,"288":-1.1793911457061768,"289":-0.7681573629379272,"290":-0.1317194551229477,"291":-0.13303153216838837,"292":-1.8400025367736816,"293":0.5037665963172913,"294":0.2919408679008484,"295":-1.174486756324768,"296":0.12310560792684555,"297":-1.0628806352615356,"298":-1.0086383819580078,"299":-0.38269785046577454,"300":-4.017674922943115,"301":-1.5974676609039307,"302":-2.373711347579956,"303":1.353022813796997,"304":1.473536491394043,"305":2.1450905799865723,"306":-0.023448504507541656,"307":-0.009428329765796661,"308":0.9794614315032959,"309":0.4749395251274109,"310":-1.3433798551559448,"311":-1.7894551753997803,"312":1.4662965536117554,"313":1.7112659215927124,"314":1.6341952085494995,"315":0.8975126147270203,"316":1.8636690378189087,"317":-1.8450008630752563,"318":-0.9731262922286987,"319":1.6717760562896729,"320":1.2732131481170654,"321":1.8364965915679932,"322":1.4004029035568237,"323":0.0092436159029603,"324":-0.5884551405906677,"325":0.5618035197257996,"326":0.5971450209617615,"327":0.9959927201271057,"328":1.152498483657837,"329":-2.0261127948760986,"330":-1.1088752746582031,"331":-1.692989706993103,"332":0.7329640984535217,"333":0.22701400518417358,"334":-0.3113253712654114,"335":0.4763008952140808,"336":-0.9197500348091125,"337":1.1460953950881958,"338":0.3620797395706177,"339":-0.8705772757530212,"340":1.4565010070800781,"341":0.4838297665119171,"342":1.7344692945480347,"343":-1.2688900232315063,"344":-0.17855964601039886,"345":0.765949010848999,"346":-0.3680129945278168,"347":-0.07874753326177597,"348":-0.14663049578666687,"349":-1.7511520385742188,"350":0.9558836817741394,"351":0.25007566809654236,"352":0.9626184105873108,"353":-2.5668911933898926,"354":0.9426231980323792,"355":-0.3642047643661499,"356":-0.6635744571685791,"357":1.0254740715026855,"358":1.502272605895996,"359":-0.7842293381690979,"360":0.5527929067611694,"361":1.0652532577514648,"362":0.9249283671379089,"363":-0.9471444487571716,"364":-0.24002178013324738,"365":-0.5970587730407715,"366":0.5086173415184021,"367":0.21824698150157928,"368":-1.9663770198822021,"369":-0.7007173895835876,"370":-0.17559093236923218,"371":0.13340570032596588,"372":-2.604684352874756,"373":-0.5369765758514404,"374":1.0616861581802368,"375":-2.319013833999634,"376":-0.2376597821712494,"377":-0.04226116091012955,"378":-0.20928052067756653,"379":1.2328816652297974,"380":-0.4500334858894348,"381":0.40435662865638733,"382":-0.06555682420730591,"383":0.11111517995595932,"384":0.3117424547672272,"385":0.21136991679668427,"386":-0.42072466015815735,"387":0.8940829038619995,"388":0.9759219884872437,"389":0.3249717354774475,"390":-0.01377400103956461,"391":-0.04297788813710213,"392":0.5142333507537842,"393":-0.1837649792432785,"394":0.2411424219608307,"395":1.4776153564453125,"396":0.17584364116191864,"397":0.4974750876426697,"398":-0.7755791544914246,"399":-0.375550240278244}},"inputBias":{"rows":20,"columns":1,"weights":{"0":-1.5035183429718018,"1":-1.126905083656311,"2":-1.2932853698730469,"3":-1.4495794773101807,"4":-0.6963952779769897,"5":-1.7270439863204956,"6":-1.4721864461898804,"7":-2.1404201984405518,"8":-1.5600517988204956,"9":-0.1668286919593811,"10":-0.7024858593940735,"11":-1.1769599914550781,"12":-1.5038039684295654,"13":-0.3838902711868286,"14":-0.21239420771598816,"15":-1.2673923969268799,"16":-0.2985196113586426,"17":-0.7495676875114441,"18":-1.7652921676635742,"19":0.3316461145877838}},"forgetMatrix":{"rows":20,"columns":26,"weights":{"0":-0.4359144866466522,"1":-2.3359105587005615,"2":-1.020620584487915,"3":-1.563645839691162,"4":0.7348957061767578,"5":-0.8188866376876831,"6":1.7550227642059326,"7":0.35392358899116516,"8":0.23662586510181427,"9":-0.8933196663856506,"10":-0.4495070278644562,"11":0.14466118812561035,"12":1.8162896633148193,"13":1.2676434516906738,"14":0.22688712179660797,"15":0.43803584575653076,"16":-0.6786107420921326,"17":0.06343523412942886,"18":-0.8387332558631897,"19":-0.8009954690933228,"20":0.7300580143928528,"21":1.8279730081558228,"22":0.4197380542755127,"23":-0.3762517273426056,"24":-0.721967875957489,"25":-0.28767427802085876,"26":-0.8382574319839478,"27":-0.9858765602111816,"28":1.081747055053711,"29":-0.6347740888595581,"30":-0.001186976209282875,"31":-0.22702161967754364,"32":0.06791997700929642,"33":0.19974972307682037,"34":0.7057690620422363,"35":0.12688586115837097,"36":-0.0664902999997139,"37":0.2429744005203247,"38":0.06269131600856781,"39":0.58136385679245,"40":0.8529308438301086,"41":-0.7615841031074524,"42":0.151607483625412,"43":-0.982654869556427,"44":-0.6810941100120544,"45":-0.7365550398826599,"46":0.8440524339675903,"47":0.3932335078716278,"48":-0.9081677198410034,"49":-0.3985300064086914,"50":-0.8926586508750916,"51":-0.0536227822303772,"52":-0.9226961731910706,"53":-1.0214486122131348,"54":0.35924264788627625,"55":-0.23276638984680176,"56":0.008142313919961452,"57":-1.0360991954803467,"58":-0.4395284354686737,"59":0.750023603439331,"60":0.9054499864578247,"61":-0.40474557876586914,"62":0.3654192090034485,"63":1.125301480293274,"64":-0.11329668760299683,"65":0.23873350024223328,"66":0.43944811820983887,"67":1.2895385026931763,"68":-0.6723111867904663,"69":-0.6366778612136841,"70":0.03410213813185692,"71":0.5418139696121216,"72":-0.5132816433906555,"73":0.3937684893608093,"74":0.41073235869407654,"75":-0.15640957653522491,"76":-2.0080416202545166,"77":1.5242834091186523,"78":-0.6802899241447449,"79":-1.3662532567977905,"80":0.6868834495544434,"81":-0.589318037033081,"82":1.496635913848877,"83":0.20636866986751556,"84":0.29076340794563293,"85":-1.005334496498108,"86":1.640880823135376,"87":-0.5907329320907593,"88":1.3622061014175415,"89":0.002916899975389242,"90":0.17695476114749908,"91":0.48100170493125916,"92":0.9581500291824341,"93":0.15676459670066833,"94":0.8165781497955322,"95":0.03804156184196472,"96":-0.44910985231399536,"97":-0.6111193895339966,"98":0.31568440794944763,"99":-0.4620504379272461,"100":0.7720051407814026,"101":1.294142723083496,"102":-0.9610466957092285,"103":0.3900889456272125,"104":-1.149804949760437,"105":-0.6973391175270081,"106":1.1116172075271606,"107":-0.12997134029865265,"108":1.3243820667266846,"109":-0.583507776260376,"110":0.45632266998291016,"111":0.19631044566631317,"112":-0.6946715712547302,"113":1.0788531303405762,"114":-0.88813716173172,"115":1.2420107126235962,"116":0.042995382100343704,"117":0.027189485728740692,"118":-0.23125554621219635,"119":-0.9626976251602173,"120":1.1782642602920532,"121":-1.3792219161987305,"122":-0.8896147012710571,"123":-1.3244284391403198,"124":0.12768502533435822,"125":1.2771745920181274,"126":-0.736617386341095,"127":-0.6595199108123779,"128":-0.9093888401985168,"129":-0.9346985816955566,"130":-0.17380140721797943,"131":-0.7053332328796387,"132":1.0035057067871094,"133":-0.6369695067405701,"134":0.6697224974632263,"135":0.7912116646766663,"136":0.6149431467056274,"137":0.4912269711494446,"138":1.1782771348953247,"139":1.6438779830932617,"140":-0.4410724341869354,"141":-0.32911500334739685,"142":0.3207303583621979,"143":0.5610847473144531,"144":-1.0560046434402466,"145":-1.0073891878128052,"146":1.2946641445159912,"147":-0.7352523803710938,"148":-0.8865253925323486,"149":-0.03598463907837868,"150":0.3075983226299286,"151":1.3594764471054077,"152":-1.2321974039077759,"153":-0.28669291734695435,"154":-0.05528738722205162,"155":0.325090616941452,"156":1.1490966081619263,"157":-0.059423286467790604,"158":-1.7233972549438477,"159":-0.21472130715847015,"160":-0.48663973808288574,"161":1.4583276510238647,"162":0.3369085192680359,"163":-0.4040057063102722,"164":-0.9764547348022461,"165":-1.0184073448181152,"166":-0.10545579344034195,"167":-0.48066452145576477,"168":0.0020203504245728254,"169":-0.046427953988313675,"170":0.12850971519947052,"171":0.11839365214109421,"172":-0.3872081935405731,"173":0.7944324612617493,"174":0.12213452160358429,"175":-0.020296841859817505,"176":0.14033332467079163,"177":-0.26737719774246216,"178":0.566535472869873,"179":0.05267609283328056,"180":1.5605201721191406,"181":0.4948405623435974,"182":-0.8836961984634399,"183":-0.12441391497850418,"184":1.2908449172973633,"185":-0.4096940755844116,"186":0.8956099152565002,"187":-0.9267162084579468,"188":0.42605307698249817,"189":0.19461221992969513,"190":0.2286129891872406,"191":0.6520867347717285,"192":-0.47654661536216736,"193":-0.03430599346756935,"194":0.6256374716758728,"195":0.4680919647216797,"196":-0.3428230285644531,"197":-0.7973302602767944,"198":0.5777790546417236,"199":-1.0532296895980835,"200":-0.23547670245170593,"201":-1.47258722782135,"202":0.8352295756340027,"203":0.1713809072971344,"204":-0.23217710852622986,"205":0.2783253788948059,"206":-0.8861575126647949,"207":-1.4210866689682007,"208":-0.865450918674469,"209":-1.166784405708313,"210":0.5861480832099915,"211":-0.8485327363014221,"212":1.0722094774246216,"213":0.8653938174247742,"214":0.4500460922718048,"215":0.5261918306350708,"216":0.3584815263748169,"217":0.08406098186969757,"218":-0.5126664638519287,"219":-0.9915062785148621,"220":1.9405561685562134,"221":1.3545844554901123,"222":-1.1720882654190063,"223":-0.6187922954559326,"224":-0.4746461808681488,"225":-0.6469144821166992,"226":-1.0937650203704834,"227":-2.0681540966033936,"228":0.9199830889701843,"229":-0.29952362179756165,"230":0.527125358581543,"231":0.24108324944972992,"232":-0.8419793844223022,"233":-0.9813640713691711,"234":0.04801328852772713,"235":0.43846824765205383,"236":-0.8105096817016602,"237":1.3306787014007568,"238":-1.4018988609313965,"239":0.015349713154137135,"240":-1.4729580879211426,"241":-0.2513534128665924,"242":-0.8152256608009338,"243":-0.8774896264076233,"244":0.2018478661775589,"245":0.2806624472141266,"246":-1.9273887872695923,"247":-0.8904515504837036,"248":1.0846091508865356,"249":0.5150712728500366,"250":-1.6399823427200317,"251":0.09418238699436188,"252":1.254506230354309,"253":0.7113717794418335,"254":-0.6647390127182007,"255":-0.9225456118583679,"256":0.2335691899061203,"257":-0.262734591960907,"258":-0.20164233446121216,"259":0.45535948872566223,"260":-0.5246506333351135,"261":-1.8523051738739014,"262":0.43094301223754883,"263":-1.1733213663101196,"264":0.7233343124389648,"265":-1.1140788793563843,"266":0.4774417281150818,"267":0.19432517886161804,"268":1.5262831449508667,"269":-0.3539678156375885,"270":0.06282184273004532,"271":1.0004318952560425,"272":1.5531864166259766,"273":1.9711154699325562,"274":-0.015000254847109318,"275":-0.22007985413074493,"276":-0.29482799768447876,"277":-1.417541265487671,"278":-1.2421815395355225,"279":-1.1221439838409424,"280":0.7141554951667786,"281":1.0713696479797363,"282":-0.3474929630756378,"283":-0.08201399445533752,"284":-0.8809399008750916,"285":0.1952248215675354,"286":0.3195027709007263,"287":0.5139757394790649,"288":0.07073884457349777,"289":0.485890656709671,"290":0.33310720324516296,"291":2.127814769744873,"292":-0.6636571288108826,"293":-1.3423651456832886,"294":0.27759838104248047,"295":-0.12742584943771362,"296":1.1905105113983154,"297":-0.38320037722587585,"298":-0.33290719985961914,"299":0.031587835401296616,"300":-0.39235222339630127,"301":0.5961821675300598,"302":-0.5421933531761169,"303":1.3235749006271362,"304":1.0252480506896973,"305":0.7038813829421997,"306":-0.20826245844364166,"307":-2.2644801139831543,"308":1.9067111015319824,"309":0.9738054871559143,"310":0.587256669998169,"311":0.7880954146385193,"312":0.29564329981803894,"313":-0.2017011195421219,"314":0.38050585985183716,"315":-0.8185025453567505,"316":0.7720098495483398,"317":-0.002377921249717474,"318":1.2007302045822144,"319":0.2716033458709717,"320":0.4144858717918396,"321":0.6110588312149048,"322":-0.22956423461437225,"323":0.30841517448425293,"324":0.8599033355712891,"325":0.7978331446647644,"326":-1.2805393934249878,"327":-0.4773048758506775,"328":0.40021324157714844,"329":-0.2845362722873688,"330":-0.26154181361198425,"331":-0.44561755657196045,"332":1.4028829336166382,"333":0.2034025341272354,"334":0.17687223851680756,"335":0.16421058773994446,"336":0.19834323227405548,"337":0.12705649435520172,"338":-0.4945821464061737,"339":-0.20627473294734955,"340":1.0176751613616943,"341":-0.05510619655251503,"342":0.10343299061059952,"343":0.30610382556915283,"344":-0.41617557406425476,"345":-0.5112961530685425,"346":1.4357843399047852,"347":0.18168486654758453,"348":0.19770506024360657,"349":-0.48246023058891296,"350":-0.4524915814399719,"351":0.39166152477264404,"352":0.8682244420051575,"353":1.3485987186431885,"354":0.05980376899242401,"355":-0.07044768333435059,"356":0.03779727593064308,"357":1.2336150407791138,"358":-1.3241465091705322,"359":-1.0799421072006226,"360":0.16756509244441986,"361":0.3408876061439514,"362":-0.42307814955711365,"363":1.4532359838485718,"364":-0.5418329834938049,"365":-0.2999521791934967,"366":-0.9246306419372559,"367":0.17356102168560028,"368":-0.17893368005752563,"369":-1.0259242057800293,"370":0.2085094004869461,"371":1.277388095855713,"372":-1.5895968675613403,"373":-1.7648345232009888,"374":-1.4127404689788818,"375":-0.019410567358136177,"376":0.9985745549201965,"377":-0.25643616914749146,"378":-0.1364307701587677,"379":-0.18812495470046997,"380":-1.8897358179092407,"381":0.23016546666622162,"382":-0.0590556263923645,"383":-0.4619678854942322,"384":-0.14286017417907715,"385":1.0055129528045654,"386":0.8251882195472717,"387":-1.2325905561447144,"388":-0.5268564224243164,"389":-1.575127363204956,"390":-0.5930739641189575,"391":-1.343803882598877,"392":0.19626609981060028,"393":-0.7287744879722595,"394":0.48193973302841187,"395":0.04642438888549805,"396":1.3227699995040894,"397":0.3292990028858185,"398":0.5612892508506775,"399":0.5324230194091797,"400":-0.4144496023654938,"401":-0.8429995775222778,"402":1.1057239770889282,"403":0.7110727429389954,"404":-1.1073689460754395,"405":0.1692674607038498,"406":0.5983247756958008,"407":-0.5818806886672974,"408":-1.1756389141082764,"409":-1.393652081489563,"410":1.1591402292251587,"411":0.4288542866706848,"412":-0.40090808272361755,"413":-0.004186136182397604,"414":-0.21561388671398163,"415":-0.944249153137207,"416":0.9602157473564148,"417":-1.4173585176467896,"418":-0.6046162247657776,"419":-1.2484272718429565,"420":0.29722094535827637,"421":1.0500614643096924,"422":1.3345786333084106,"423":0.1834070235490799,"424":-0.5832720994949341,"425":-0.5116369128227234,"426":-0.048342473804950714,"427":-0.9378879070281982,"428":1.8219213485717773,"429":1.0415887832641602,"430":-0.6964898109436035,"431":-0.7859941124916077,"432":0.07048089802265167,"433":-0.08994509279727936,"434":-1.088584065437317,"435":-0.6313490271568298,"436":0.7428717017173767,"437":1.1122015714645386,"438":0.2705753743648529,"439":0.12115909159183502,"440":1.4149551391601562,"441":0.1798042356967926,"442":0.8113755583763123,"443":0.36299100518226624,"444":0.34389737248420715,"445":-0.1980983018875122,"446":-0.17916613817214966,"447":0.9377750158309937,"448":-0.21372774243354797,"449":-0.5729957222938538,"450":0.03363741561770439,"451":0.19495216012001038,"452":0.7057952284812927,"453":-1.18495512008667,"454":-0.5293166637420654,"455":0.17277219891548157,"456":1.1659233570098877,"457":0.7969651818275452,"458":0.17624980211257935,"459":0.5781338810920715,"460":0.11493375897407532,"461":1.3635759353637695,"462":-1.1199313402175903,"463":-0.6849036812782288,"464":-0.009697298519313335,"465":0.6199744343757629,"466":0.9732493758201599,"467":0.5429220795631409,"468":-0.3734127879142761,"469":-0.3786245584487915,"470":-0.26900866627693176,"471":0.30925124883651733,"472":-1.036387324333191,"473":-0.29473546147346497,"474":-1.0479774475097656,"475":-0.5475387573242188,"476":-0.7241037487983704,"477":-1.1061103343963623,"478":0.012365465983748436,"479":1.1312018632888794,"480":-1.0767362117767334,"481":-1.074228286743164,"482":1.5524499416351318,"483":1.4719412326812744,"484":-0.6804934740066528,"485":-0.25592827796936035,"486":0.23242460191249847,"487":0.6744204163551331,"488":-0.02005225047469139,"489":-0.14402444660663605,"490":1.0256131887435913,"491":-1.0965434312820435,"492":-0.7725659608840942,"493":-1.2195221185684204,"494":1.0832668542861938,"495":-0.15100771188735962,"496":0.00013678670802619308,"497":-0.5850433707237244,"498":-0.09623341262340546,"499":0.3900173008441925,"500":1.2289780378341675,"501":0.13447096943855286,"502":0.2666790187358856,"503":0.7392317652702332,"504":0.10033218562602997,"505":-0.5792480707168579,"506":1.0273886919021606,"507":1.133441686630249,"508":-1.145169734954834,"509":-1.1567444801330566,"510":1.095887541770935,"511":0.11844611167907715,"512":-0.864149272441864,"513":-1.1520028114318848,"514":1.573060154914856,"515":0.07661976665258408,"516":-0.8588687181472778,"517":0.255231112241745,"518":1.3220641613006592,"519":0.15489108860492706}},"forgetHidden":{"rows":20,"columns":20,"weights":{"0":-0.14289429783821106,"1":1.0958106517791748,"2":0.4641454517841339,"3":0.20025508105754852,"4":-0.41136521100997925,"5":0.7268531918525696,"6":1.1153061389923096,"7":-0.03260461986064911,"8":-0.49001508951187134,"9":-0.5201091766357422,"10":0.7482298612594604,"11":0.21202433109283447,"12":0.5294490456581116,"13":0.8588976263999939,"14":0.7977621555328369,"15":-0.2351299524307251,"16":-0.48246511816978455,"17":-0.24669626355171204,"18":1.0248116254806519,"19":1.554224967956543,"20":1.3414617776870728,"21":1.3466198444366455,"22":2.280524730682373,"23":-1.832287073135376,"24":-0.9143874645233154,"25":-0.29295483231544495,"26":0.5757067799568176,"27":0.02831912599503994,"28":0.39993786811828613,"29":-2.08925199508667,"30":0.3298693597316742,"31":0.4086558520793915,"32":0.3921367824077606,"33":-0.683201789855957,"34":0.30329713225364685,"35":-0.28312212228775024,"36":-0.6943827271461487,"37":-0.6169812083244324,"38":2.478923797607422,"39":1.6016062498092651,"40":0.46182453632354736,"41":1.1852370500564575,"42":0.47132185101509094,"43":-0.7329888343811035,"44":-1.401354193687439,"45":0.346622109413147,"46":0.3149625062942505,"47":-0.20316873490810394,"48":0.9431973099708557,"49":-0.8735753893852234,"50":0.752768337726593,"51":1.7952349185943604,"52":0.6213617324829102,"53":1.7212564945220947,"54":1.3673839569091797,"55":-1.5819871425628662,"56":-1.409300446510315,"57":-1.888987421989441,"58":0.6359454989433289,"59":-0.5623282194137573,"60":0.3357183635234833,"61":1.3252183198928833,"62":0.19875985383987427,"63":-1.1196372509002686,"64":-0.32065173983573914,"65":0.6652466654777527,"66":-0.03513588011264801,"67":0.35557299852371216,"68":1.0574113130569458,"69":-0.33766448497772217,"70":1.084539532661438,"71":-0.35043421387672424,"72":-0.01606328971683979,"73":2.05452036857605,"74":0.3625926375389099,"75":-1.8862638473510742,"76":-0.35712048411369324,"77":-0.40636518597602844,"78":1.054152488708496,"79":-0.11597990989685059,"80":-0.18883433938026428,"81":-0.32194986939430237,"82":-0.06967824697494507,"83":0.17569789290428162,"84":0.34557849168777466,"85":-1.1993415355682373,"86":0.04622090607881546,"87":-0.03156249225139618,"88":0.6133766770362854,"89":1.0052024126052856,"90":0.164983332157135,"91":0.5171302556991577,"92":-0.3743312954902649,"93":0.24441073834896088,"94":-0.5749948024749756,"95":0.026358047500252724,"96":-0.23871877789497375,"97":0.9705314636230469,"98":-0.5722734332084656,"99":-0.4874180555343628,"100":-0.27289122343063354,"101":-0.4051768481731415,"102":0.05772744119167328,"103":-1.3740073442459106,"104":-0.8666250109672546,"105":0.2014957070350647,"106":-0.026617979630827904,"107":0.17643116414546967,"108":0.2846202552318573,"109":-0.41430291533470154,"110":0.09219977259635925,"111":0.4880257546901703,"112":0.3500458896160126,"113":-1.2523670196533203,"114":0.22640074789524078,"115":0.493879109621048,"116":0.34605029225349426,"117":1.4597668647766113,"118":-0.6443538665771484,"119":-1.0987457036972046,"120":0.9154307246208191,"121":0.49687641859054565,"122":0.6369910836219788,"123":-0.1459461748600006,"124":0.5299538373947144,"125":0.4278481602668762,"126":0.429149329662323,"127":-0.13117560744285583,"128":-0.2966771423816681,"129":-0.0789128765463829,"130":-0.2611306607723236,"131":-0.5788010954856873,"132":-0.3125418722629547,"133":-0.3070928454399109,"134":-0.12262143939733505,"135":-0.8437215089797974,"136":-0.6045876145362854,"137":-0.3063585162162781,"138":0.9173267483711243,"139":-0.7205941677093506,"140":0.052439916878938675,"141":-0.015808168798685074,"142":-0.29004254937171936,"143":-0.6330668330192566,"144":0.789656937122345,"145":-0.554354190826416,"146":0.052929122000932693,"147":1.2372204065322876,"148":-0.843421995639801,"149":0.11140166223049164,"150":-1.0996867418289185,"151":-1.060015320777893,"152":-1.4441094398498535,"153":1.4682122468948364,"154":-1.0361642837524414,"155":-0.5774233937263489,"156":-0.4022511839866638,"157":-0.5306951999664307,"158":0.6296290159225464,"159":-0.09385063499212265,"160":-0.5881391763687134,"161":-0.3396649658679962,"162":-0.3848003149032593,"163":0.2553994655609131,"164":-1.1326427459716797,"165":-1.0844664573669434,"166":0.5006187558174133,"167":-0.07058476656675339,"168":0.20708364248275757,"169":0.3683282434940338,"170":0.9022449851036072,"171":2.128415107727051,"172":-0.08462295681238174,"173":-0.09410522133111954,"174":-0.5067353248596191,"175":-0.14497128129005432,"176":-0.6357402801513672,"177":-0.5982792377471924,"178":0.3438970744609833,"179":-0.9563202857971191,"180":-0.41089096665382385,"181":-0.8549894690513611,"182":-1.0213741064071655,"183":-0.28339672088623047,"184":0.5053699016571045,"185":-0.5475378632545471,"186":-0.5804709196090698,"187":0.1582382172346115,"188":-0.48351579904556274,"189":-0.5885565280914307,"190":-0.6542342305183411,"191":0.5684344172477722,"192":0.23597201704978943,"193":0.1325421929359436,"194":-0.028130261227488518,"195":0.16587743163108826,"196":1.008753776550293,"197":-0.7510407567024231,"198":0.9923079609870911,"199":0.9053815007209778,"200":0.583763062953949,"201":0.5577430129051208,"202":0.4094426929950714,"203":-0.31590408086776733,"204":0.2646770477294922,"205":-0.924129843711853,"206":0.5460726618766785,"207":0.15490056574344635,"208":-0.8217207193374634,"209":0.12493127584457397,"210":-0.1711856573820114,"211":0.7641251087188721,"212":0.006108547560870647,"213":-0.01803162693977356,"214":0.3673136532306671,"215":-0.9654644727706909,"216":-0.399282842874527,"217":-0.458436518907547,"218":1.27836275100708,"219":-0.02651991881430149,"220":-0.3192744553089142,"221":-0.564285397529602,"222":0.04899134486913681,"223":-1.4903044700622559,"224":0.9693183302879333,"225":-1.1081141233444214,"226":-0.4131835103034973,"227":-0.5857603549957275,"228":0.572147011756897,"229":0.13768956065177917,"230":0.6010836362838745,"231":0.2569062411785126,"232":1.1982920169830322,"233":1.0633165836334229,"234":-0.33769935369491577,"235":-1.0152571201324463,"236":1.0779505968093872,"237":2.2488350868225098,"238":0.2650974988937378,"239":0.18601541221141815,"240":-0.8464117646217346,"241":-1.0954809188842773,"242":-1.2973343133926392,"243":-0.5974706411361694,"244":1.70790433883667,"245":-1.2390598058700562,"246":0.2699117362499237,"247":0.5363139510154724,"248":-2.260438919067383,"249":-0.6055049896240234,"250":-2.369438409805298,"251":-1.9934453964233398,"252":-1.4289990663528442,"253":1.553093433380127,"254":-2.154012441635132,"255":-0.26124513149261475,"256":-0.37012776732444763,"257":1.6733641624450684,"258":0.4777030944824219,"259":-0.8472884297370911,"260":-0.2669812738895416,"261":0.2785598933696747,"262":-0.28759559988975525,"263":1.2048314809799194,"264":-0.5495553612709045,"265":-0.46873804926872253,"266":-0.4002631902694702,"267":0.7262779474258423,"268":1.0707205533981323,"269":-1.3699685335159302,"270":0.5735227465629578,"271":-1.2372840642929077,"272":-1.6352587938308716,"273":-1.3065804243087769,"274":0.7398681044578552,"275":0.17236796021461487,"276":0.7082826495170593,"277":0.22943508625030518,"278":1.4306480884552002,"279":-0.6206148266792297,"280":0.9345396161079407,"281":1.2879900932312012,"282":0.9971427321434021,"283":-0.6541719436645508,"284":-1.371372938156128,"285":0.8526991009712219,"286":0.3508921265602112,"287":-0.8949962854385376,"288":1.0478827953338623,"289":-1.2985371351242065,"290":1.507746696472168,"291":0.2253497987985611,"292":0.7981038093566895,"293":0.38189181685447693,"294":0.6064535975456238,"295":-1.1774744987487793,"296":-0.5837692618370056,"297":0.41844815015792847,"298":1.3378595113754272,"299":1.0991793870925903,"300":-0.1278606653213501,"301":0.5593212842941284,"302":0.3324428200721741,"303":-1.3499239683151245,"304":-0.036929503083229065,"305":-1.0336077213287354,"306":0.2004045844078064,"307":-0.03773670643568039,"308":-0.28696590662002563,"309":-0.3629956543445587,"310":0.802153468132019,"311":2.6282312870025635,"312":-0.004311714321374893,"313":0.3153822720050812,"314":-1.7780178785324097,"315":0.09513019025325775,"316":0.17110034823417664,"317":0.09094423800706863,"318":-0.8702105283737183,"319":0.19687899947166443,"320":0.2964925765991211,"321":0.9549773931503296,"322":0.47207194566726685,"323":-0.4278654158115387,"324":-1.0448851585388184,"325":0.4934299886226654,"326":0.41327744722366333,"327":-0.20573988556861877,"328":0.8455808758735657,"329":-0.7417283654212952,"330":0.7023819088935852,"331":0.5891383290290833,"332":0.30758392810821533,"333":0.2893524765968323,"334":1.0342665910720825,"335":-0.15429043769836426,"336":-0.29219433665275574,"337":-0.6663983464241028,"338":2.3243370056152344,"339":0.694438099861145,"340":1.97599458694458,"341":1.7304835319519043,"342":3.0381712913513184,"343":-1.7892731428146362,"344":-0.8831411600112915,"345":2.3714327812194824,"346":0.8852676749229431,"347":1.2210880517959595,"348":-0.23179474472999573,"349":-0.9406846761703491,"350":1.329696536064148,"351":1.7310779094696045,"352":-1.3652456998825073,"353":-1.6311326026916504,"354":-0.8887949585914612,"355":0.5952486395835876,"356":-1.6282877922058105,"357":0.7412154674530029,"358":2.198273181915283,"359":1.0231622457504272,"360":0.4741782248020172,"361":0.15153445303440094,"362":-0.20171990990638733,"363":-0.6445411443710327,"364":0.3111160397529602,"365":0.9152929782867432,"366":0.9498976469039917,"367":-0.6959756016731262,"368":1.6887623071670532,"369":-0.7749692797660828,"370":-0.17749947309494019,"371":0.0233891811221838,"372":1.6191966533660889,"373":1.2226674556732178,"374":0.8532264232635498,"375":0.45688921213150024,"376":-1.1188430786132812,"377":-0.7563621997833252,"378":0.1373259425163269,"379":0.35524991154670715,"380":-0.5118824243545532,"381":-1.3895201683044434,"382":-0.4914994537830353,"383":1.1141469478607178,"384":0.5082094669342041,"385":-0.5490236282348633,"386":-0.48063749074935913,"387":0.07795213162899017,"388":-0.6661527156829834,"389":-0.07527467608451843,"390":-0.8597049713134766,"391":-1.1982544660568237,"392":-0.0955718383193016,"393":-0.4029166102409363,"394":-0.6130437254905701,"395":-0.09017910063266754,"396":0.6599937677383423,"397":-0.4755769968032837,"398":0.029056373983621597,"399":0.6739736795425415}},"forgetBias":{"rows":20,"columns":1,"weights":{"0":0,"1":0,"2":0,"3":0,"4":0,"5":0,"6":0,"7":0,"8":0,"9":0,"10":0,"11":0,"12":0,"13":0,"14":0,"15":0,"16":0,"17":0,"18":0,"19":0}},"outputMatrix":{"rows":20,"columns":26,"weights":{"0":-0.20985539257526398,"1":0.9873555302619934,"2":-0.2872425615787506,"3":0.8578145503997803,"4":-0.42634955048561096,"5":1.5203503370285034,"6":-0.7367593050003052,"7":-0.4225218594074249,"8":-0.9448986649513245,"9":-0.8429210186004639,"10":0.6118322014808655,"11":-0.4169887900352478,"12":-1.0954976081848145,"13":-0.808547854423523,"14":2.003180980682373,"15":1.215790867805481,"16":-2.1375675201416016,"17":1.3132622241973877,"18":1.023899793624878,"19":0.5622180700302124,"20":-1.878865122795105,"21":-0.5276130437850952,"22":0.3390968441963196,"23":0.4841060936450958,"24":-0.272484689950943,"25":0.7587719559669495,"26":0.801653265953064,"27":0.08130104094743729,"28":0.520941972732544,"29":0.32360485196113586,"30":0.3844566345214844,"31":1.2071954011917114,"32":-0.5529065132141113,"33":-1.5591315031051636,"34":0.17547303438186646,"35":-0.7098970413208008,"36":1.3434464931488037,"37":-0.974335253238678,"38":-0.3300911784172058,"39":-0.06190355122089386,"40":1.0748991966247559,"41":-0.35740500688552856,"42":-0.6316593885421753,"43":-0.14063633978366852,"44":-0.11731018871068954,"45":-1.2331767082214355,"46":0.0535140335559845,"47":-0.31291112303733826,"48":-0.6248654127120972,"49":0.7803055047988892,"50":1.1880398988723755,"51":-0.35796380043029785,"52":-0.6570824980735779,"53":0.4943747818470001,"54":0.06813372671604156,"55":0.25196608901023865,"56":-0.08488760888576508,"57":-0.38274484872817993,"58":-0.426211953163147,"59":-1.3683210611343384,"60":-0.12834617495536804,"61":-0.638861894607544,"62":1.3529466390609741,"63":-0.10227880626916885,"64":-0.5911335349082947,"65":-0.38540929555892944,"66":2.468745708465576,"67":1.631251573562622,"68":-0.6109732389450073,"69":0.12194813042879105,"70":0.5204611420631409,"71":0.6083638072013855,"72":-0.9824946522712708,"73":-0.3372955322265625,"74":0.5041495561599731,"75":0.5545450448989868,"76":-1.0903737545013428,"77":0.5080925226211548,"78":0.4776776134967804,"79":0.22457799315452576,"80":-0.2663270831108093,"81":0.15424174070358276,"82":-0.8159821629524231,"83":-0.02330133691430092,"84":-0.43021196126937866,"85":-0.4524605870246887,"86":0.43274977803230286,"87":-0.2656508684158325,"88":1.2060295343399048,"89":-0.2555014193058014,"90":-0.4152173399925232,"91":0.04428232088685036,"92":1.152322769165039,"93":1.0066816806793213,"94":-0.3134051263332367,"95":0.3946217894554138,"96":0.21035638451576233,"97":1.0089155435562134,"98":-0.20001396536827087,"99":-0.5790697336196899,"100":0.18699033558368683,"101":0.23652663826942444,"102":-0.26431238651275635,"103":0.9541967511177063,"104":-0.10927281528711319,"105":-1.354138970375061,"106":-0.8437022566795349,"107":-0.5180083513259888,"108":0.8632898926734924,"109":1.2687557935714722,"110":0.6590786576271057,"111":-1.1167335510253906,"112":0.4725356698036194,"113":-1.8485169410705566,"114":0.5383007526397705,"115":-0.056465908885002136,"116":0.7080745697021484,"117":0.7948321104049683,"118":0.0003128040989395231,"119":0.45870599150657654,"120":-0.6785769462585449,"121":1.1363049745559692,"122":0.2584540545940399,"123":-1.19553542137146,"124":0.49810922145843506,"125":1.4317761659622192,"126":1.8045073747634888,"127":1.4516907930374146,"128":0.3657912611961365,"129":-0.84871506690979,"130":-0.07361383736133575,"131":0.6121504306793213,"132":1.2339463233947754,"133":-0.895848274230957,"134":0.5333771705627441,"135":0.521089494228363,"136":0.9487618803977966,"137":0.2111387550830841,"138":-0.22906522452831268,"139":1.1004334688186646,"140":-0.08419382572174072,"141":-0.9220349192619324,"142":0.9197788238525391,"143":1.2560051679611206,"144":-0.7403537034988403,"145":-1.5579345226287842,"146":1.3083523511886597,"147":-0.5641087889671326,"148":-1.1684314012527466,"149":-0.463934063911438,"150":-0.021358810365200043,"151":0.030035298317670822,"152":-1.833619475364685,"153":0.5367439985275269,"154":0.24849183857440948,"155":-0.32224810123443604,"156":0.21146123111248016,"157":0.45544570684432983,"158":-0.25500810146331787,"159":0.6344432830810547,"160":0.30431878566741943,"161":1.2136683464050293,"162":-1.198315143585205,"163":-0.5425274968147278,"164":-0.7423520088195801,"165":-0.6679911017417908,"166":0.5626237988471985,"167":-0.326905220746994,"168":-0.7812346816062927,"169":-0.10182850807905197,"170":0.836895763874054,"171":0.4288509786128998,"172":-1.799672245979309,"173":0.6927515268325806,"174":0.6518635749816895,"175":-0.6265068650245667,"176":0.3194003403186798,"177":-1.087569236755371,"178":0.6600165963172913,"179":0.4747539460659027,"180":0.6554187536239624,"181":-0.7795118093490601,"182":-0.5819665193557739,"183":0.34373995661735535,"184":0.10660663992166519,"185":-0.28449776768684387,"186":0.3016285300254822,"187":-0.2504771053791046,"188":-0.07843451201915741,"189":1.0753347873687744,"190":0.11467038094997406,"191":-0.4887460470199585,"192":-0.7735456824302673,"193":1.3511662483215332,"194":0.33206942677497864,"195":0.7669375538825989,"196":0.11865394562482834,"197":-0.12081450968980789,"198":-0.49807068705558777,"199":0.21517032384872437,"200":1.5350450277328491,"201":-0.9154130220413208,"202":0.6279668807983398,"203":0.5680773258209229,"204":0.06425977498292923,"205":-1.1482218503952026,"206":0.004078093450516462,"207":-2.239694356918335,"208":-0.3157321512699127,"209":-0.5978530645370483,"210":1.2868067026138306,"211":-1.754058599472046,"212":1.0803488492965698,"213":0.6126322746276855,"214":1.4967492818832397,"215":0.7859306931495667,"216":0.7350504398345947,"217":0.8704820275306702,"218":0.22755102813243866,"219":-1.0951930284500122,"220":2.104787588119507,"221":1.7803845405578613,"222":-1.4618072509765625,"223":-0.9409019351005554,"224":0.5966728329658508,"225":-0.9939942955970764,"226":-1.9627718925476074,"227":-1.420734167098999,"228":2.4749250411987305,"229":-0.7930595278739929,"230":-0.045990657061338425,"231":0.4625658392906189,"232":-0.12479196488857269,"233":0.008787981234490871,"234":-0.7299693822860718,"235":-0.179408997297287,"236":-0.05499586835503578,"237":0.212148055434227,"238":0.3120550811290741,"239":-1.203832745552063,"240":-0.8373801708221436,"241":0.9057881832122803,"242":-0.18448738753795624,"243":-1.4726066589355469,"244":0.017842380329966545,"245":1.8737578392028809,"246":-0.22941364347934723,"247":-0.1280205398797989,"248":2.007568836212158,"249":0.8842402100563049,"250":-2.1684322357177734,"251":-0.017311515286564827,"252":0.38655900955200195,"253":0.08397091180086136,"254":-1.5371859073638916,"255":2.544280767440796,"256":0.26420193910598755,"257":-1.1999268531799316,"258":-1.148716688156128,"259":-0.4532606303691864,"260":0.8704565167427063,"261":-0.33737078309059143,"262":-0.050024718046188354,"263":-0.7514110803604126,"264":1.1454808712005615,"265":0.9927714467048645,"266":0.5664076209068298,"267":-0.6428918838500977,"268":1.1889015436172485,"269":0.031118756160140038,"270":1.306115984916687,"271":-0.7811158895492554,"272":0.7014020681381226,"273":2.3448774814605713,"274":-0.3944239616394043,"275":0.15325157344341278,"276":0.0488101989030838,"277":0.7638451457023621,"278":0.2772078216075897,"279":-0.14264021813869476,"280":0.7361586093902588,"281":0.31326591968536377,"282":0.4785628914833069,"283":1.7761989831924438,"284":0.9496259689331055,"285":0.8395527005195618,"286":0.17120619118213654,"287":-0.5284280776977539,"288":1.4502873420715332,"289":-0.5065405368804932,"290":0.18414688110351562,"291":0.5508244633674622,"292":0.6176528334617615,"293":0.169753298163414,"294":1.4421590566635132,"295":1.906378149986267,"296":0.005791607778519392,"297":-0.18582285940647125,"298":-0.28101029992103577,"299":0.4652639627456665,"300":-0.7799891233444214,"301":0.03188817575573921,"302":2.39547061920166,"303":-0.5619379281997681,"304":-0.6097875237464905,"305":0.8779444098472595,"306":-0.046137019991874695,"307":-0.010166623629629612,"308":-1.4225703477859497,"309":0.22495655715465546,"310":-0.0505773164331913,"311":0.9804957509040833,"312":-1.0652563571929932,"313":-0.30539098381996155,"314":2.4077236652374268,"315":-0.27961215376853943,"316":0.3935089409351349,"317":-0.053896475583314896,"318":0.1952197253704071,"319":0.6721847057342529,"320":1.3688355684280396,"321":0.9638568758964539,"322":-0.8004612326622009,"323":0.47149375081062317,"324":0.44233012199401855,"325":0.5641388297080994,"326":-1.1479771137237549,"327":-1.471120834350586,"328":0.48359885811805725,"329":-1.129780888557434,"330":-0.5508431196212769,"331":-1.3680123090744019,"332":0.7544118165969849,"333":-0.2370384782552719,"334":-1.2847760915756226,"335":-0.2868492901325226,"336":-0.3853880763053894,"337":-1.382464051246643,"338":-1.3030451536178589,"339":1.1768571138381958,"340":1.7509721517562866,"341":0.5332565903663635,"342":0.3810885548591614,"343":-0.1508563756942749,"344":-0.6118524074554443,"345":-0.7498223185539246,"346":0.3734669089317322,"347":0.6636059880256653,"348":0.2618987560272217,"349":0.771062970161438,"350":-1.4288536310195923,"351":-0.25914618372917175,"352":1.8820849657058716,"353":0.3344641625881195,"354":0.03578370437026024,"355":-0.25149476528167725,"356":0.5547601580619812,"357":0.1738031804561615,"358":-1.01012122631073,"359":-0.42613574862480164,"360":-1.0440397262573242,"361":-0.3878365159034729,"362":-1.1396390199661255,"363":-0.8061036467552185,"364":-0.9977075457572937,"365":0.6029459834098816,"366":-0.4141176640987396,"367":1.1838351488113403,"368":-0.45587629079818726,"369":-0.07602068781852722,"370":-1.4206753969192505,"371":-0.5502697229385376,"372":0.12207856774330139,"373":-1.550757646560669,"374":0.6421306729316711,"375":0.8232938647270203,"376":-1.4614596366882324,"377":-0.6814800500869751,"378":1.3816719055175781,"379":1.1106423139572144,"380":-1.9691188335418701,"381":0.47895997762680054,"382":1.5789016485214233,"383":0.5801465511322021,"384":-0.6264259815216064,"385":-0.272199422121048,"386":0.9665079712867737,"387":0.3226681351661682,"388":-1.6517678499221802,"389":-0.06722953170537949,"390":-0.8241801857948303,"391":-1.0319187641143799,"392":1.531623125076294,"393":-1.2245546579360962,"394":1.124680757522583,"395":1.0748200416564941,"396":1.335909366607666,"397":0.4298437833786011,"398":0.9758250713348389,"399":0.4462966322898865,"400":-0.24051831662654877,"401":-0.7551217675209045,"402":1.5356330871582031,"403":1.5365363359451294,"404":-1.592801570892334,"405":-1.2098872661590576,"406":-0.3316575586795807,"407":-0.5874342918395996,"408":-1.1931543350219727,"409":-2.5081679821014404,"410":1.2094258069992065,"411":0.4726499915122986,"412":-0.16335523128509521,"413":0.5072609782218933,"414":-0.2462182193994522,"415":-1.019049882888794,"416":0.955670952796936,"417":0.19278228282928467,"418":0.5569778680801392,"419":0.05343003571033478,"420":0.9559690952301025,"421":2.0121500492095947,"422":-0.17589108645915985,"423":-0.25720223784446716,"424":0.21325094997882843,"425":0.18038126826286316,"426":1.2066044807434082,"427":-0.7291536331176758,"428":0.08209498226642609,"429":0.2669598460197449,"430":-0.04163968190550804,"431":-0.11265098303556442,"432":0.15032465755939484,"433":0.2692584693431854,"434":0.421278715133667,"435":0.20115989446640015,"436":-0.8163724541664124,"437":0.4840734302997589,"438":0.3739444613456726,"439":1.1833103895187378,"440":0.9185034036636353,"441":0.6055150032043457,"442":-2.4059503078460693,"443":-0.09829754382371902,"444":0.41683700680732727,"445":0.0395180843770504,"446":-0.447986900806427,"447":-1.5999952554702759,"448":0.2910566031932831,"449":0.09445266425609589,"450":0.26305145025253296,"451":-0.056384216994047165,"452":-0.36118534207344055,"453":0.5903519988059998,"454":-0.1627194583415985,"455":-0.3420248031616211,"456":0.8495898246765137,"457":0.3214026093482971,"458":0.43028783798217773,"459":-0.20154254138469696,"460":-0.44244298338890076,"461":0.547172486782074,"462":-0.9831515550613403,"463":1.212133526802063,"464":-0.25558072328567505,"465":-0.35200798511505127,"466":-2.911849021911621,"467":-1.098365068435669,"468":-1.45182466506958,"469":0.045752156525850296,"470":-0.3619578182697296,"471":0.40725868940353394,"472":0.4586687386035919,"473":0.8275185823440552,"474":-0.5062126517295837,"475":-1.1633661985397339,"476":-1.6236592531204224,"477":-1.0979810953140259,"478":0.023896099999547005,"479":0.19444726407527924,"480":-0.1302853375673294,"481":-0.27122730016708374,"482":1.5089184045791626,"483":0.33174222707748413,"484":-0.9873702526092529,"485":0.3676903545856476,"486":0.2791273593902588,"487":-0.6650007367134094,"488":-0.3005901873111725,"489":-0.9247186779975891,"490":1.4980369806289673,"491":0.26441749930381775,"492":-0.020208392292261124,"493":-1.6511163711547852,"494":-0.227200448513031,"495":1.926561713218689,"496":0.8287491798400879,"497":1.6491879224777222,"498":0.05133365839719772,"499":0.23820561170578003,"500":-1.5264736413955688,"501":0.7130314707756042,"502":-0.4540567994117737,"503":0.1148325577378273,"504":-0.07016120851039886,"505":-0.27068907022476196,"506":-1.0852421522140503,"507":-0.332331120967865,"508":-0.37963852286338806,"509":-0.10020714998245239,"510":-1.0166113376617432,"511":0.3405911922454834,"512":1.5975724458694458,"513":-0.45985499024391174,"514":-0.8319283127784729,"515":-0.618589460849762,"516":-0.5142244696617126,"517":-0.44408583641052246,"518":0.5627148151397705,"519":-0.5083314776420593}},"outputHidden":{"rows":20,"columns":20,"weights":{"0":-0.4588213562965393,"1":-0.4360171854496002,"2":-0.2779189944267273,"3":0.776166558265686,"4":-0.754781186580658,"5":0.30884960293769836,"6":0.21764342486858368,"7":0.9663875699043274,"8":-0.12666794657707214,"9":-0.15135103464126587,"10":0.9824771285057068,"11":0.517681360244751,"12":-0.7755939960479736,"13":0.051708247512578964,"14":0.5036864876747131,"15":-0.16970409452915192,"16":-0.3453189730644226,"17":0.31478428840637207,"18":-0.6629611849784851,"19":0.5857433676719666,"20":0.6919174194335938,"21":0.561331570148468,"22":0.415143758058548,"23":-0.23018549382686615,"24":0.9049278497695923,"25":0.5401424765586853,"26":0.5895875692367554,"27":2.7128360271453857,"28":-3.3980419635772705,"29":0.33121445775032043,"30":-0.5772373676300049,"31":-1.2592347860336304,"32":-3.4633171558380127,"33":-1.8949992656707764,"34":0.32566919922828674,"35":-1.7060527801513672,"36":-0.31138870120048523,"37":-0.013291115872561932,"38":-1.1593834161758423,"39":0.9380241632461548,"40":0.053049586713314056,"41":1.3759742975234985,"42":0.011632801964879036,"43":0.3995562493801117,"44":-0.5697828531265259,"45":-0.8329891562461853,"46":0.7172402739524841,"47":2.50614857673645,"48":-2.163054943084717,"49":-1.5766469240188599,"50":1.0875627994537354,"51":-1.84743332862854,"52":-4.431761741638184,"53":-0.736436665058136,"54":1.3763031959533691,"55":-3.8717596530914307,"56":-1.408948540687561,"57":-1.039623737335205,"58":-1.0526483058929443,"59":-1.386893391609192,"60":-0.8572658896446228,"61":-0.08162467926740646,"62":0.4257602393627167,"63":-2.412260055541992,"64":2.4308505058288574,"65":0.8054014444351196,"66":-1.0065020322799683,"67":2.1078078746795654,"68":-1.7119922637939453,"69":1.5323126316070557,"70":-0.7835219502449036,"71":-0.39391863346099854,"72":-4.094407081604004,"73":0.9472624659538269,"74":1.103128433227539,"75":-2.7397029399871826,"76":1.4376615285873413,"77":-1.3443087339401245,"78":-0.7992717027664185,"79":-1.3548704385757446,"80":-0.41128647327423096,"81":0.09192556142807007,"82":-0.04139898717403412,"83":0.430957168340683,"84":-0.24189968407154083,"85":1.1945711374282837,"86":-0.2533176839351654,"87":0.8420936465263367,"88":0.6345628499984741,"89":-0.770038366317749,"90":0.4227544963359833,"91":-0.91103196144104,"92":0.3637438118457794,"93":0.3315776288509369,"94":0.3690791130065918,"95":0.9707068800926208,"96":-0.3078000843524933,"97":0.2396957278251648,"98":-0.6786302328109741,"99":0.13683268427848816,"100":-0.27303701639175415,"101":-0.09391925483942032,"102":-0.04667816311120987,"103":-0.13499988615512848,"104":0.47518283128738403,"105":1.7629822492599487,"106":-0.3516635000705719,"107":1.4921202659606934,"108":0.12057327479124069,"109":-0.38225609064102173,"110":-0.38840192556381226,"111":-1.0935074090957642,"112":0.30328699946403503,"113":-4.031936168670654,"114":0.3387804925441742,"115":-0.7689226865768433,"116":0.3837334215641022,"117":2.580150604248047,"118":-0.5217143297195435,"119":-1.3208156824111938,"120":-0.43336525559425354,"121":-1.7692978382110596,"122":-0.35928720235824585,"123":0.8791491389274597,"124":0.2774388790130615,"125":1.1895774602890015,"126":-0.3079221844673157,"127":0.15082505345344543,"128":0.1702120155096054,"129":-0.36096304655075073,"130":-0.20208212733268738,"131":-1.599205493927002,"132":1.7660746574401855,"133":-0.7428802847862244,"134":-0.6297802329063416,"135":0.10859972983598709,"136":0.41359207034111023,"137":1.677371859550476,"138":-1.1038416624069214,"139":0.07142551243305206,"140":-0.187300443649292,"141":0.3168655037879944,"142":0.18745699524879456,"143":-0.3933360278606415,"144":0.43863505125045776,"145":0.9131180644035339,"146":-0.8976731300354004,"147":1.2859960794448853,"148":0.4486348628997803,"149":0.21558839082717896,"150":-0.7623804807662964,"151":-1.3991076946258545,"152":-0.5805236101150513,"153":-0.6501770615577698,"154":-0.29737600684165955,"155":0.2736150324344635,"156":0.1946471929550171,"157":1.2283596992492676,"158":-0.2825358510017395,"159":0.8135721683502197,"160":-0.660730242729187,"161":-0.24985471367835999,"162":0.10642150044441223,"163":0.25752708315849304,"164":-0.4032834470272064,"165":0.008430909365415573,"166":-0.4381003975868225,"167":-0.37564924359321594,"168":-0.967731773853302,"169":0.03261207044124603,"170":0.3851322829723358,"171":-0.6657856702804565,"172":-1.643300175666809,"173":-1.1645078659057617,"174":-0.7144756317138672,"175":-2.258880853652954,"176":0.09891710430383682,"177":0.4306665062904358,"178":-0.5512531399726868,"179":-0.1081528440117836,"180":-0.30178648233413696,"181":0.42464786767959595,"182":0.0957551822066307,"183":-0.47279947996139526,"184":0.2822744846343994,"185":0.2722912132740021,"186":-0.7714592218399048,"187":0.4027068316936493,"188":0.7730824947357178,"189":-0.25779688358306885,"190":0.22596053779125214,"191":-0.21503354609012604,"192":-0.7879382967948914,"193":-0.01692778430879116,"194":0.052864715456962585,"195":-0.5876864194869995,"196":0.6725485920906067,"197":-1.4702768325805664,"198":1.6589523553848267,"199":0.9863529801368713,"200":-0.8475844860076904,"201":-0.9177497625350952,"202":-0.13874603807926178,"203":1.028900146484375,"204":0.30552706122398376,"205":-0.8550489544868469,"206":-0.238886296749115,"207":-0.13023728132247925,"208":-0.06106172502040863,"209":-0.03074759989976883,"210":-0.6127209663391113,"211":0.31143510341644287,"212":0.6721301078796387,"213":-1.3422120809555054,"214":-0.20813316106796265,"215":-0.363735556602478,"216":0.9423260688781738,"217":1.8903157711029053,"218":-0.14284390211105347,"219":1.081207036972046,"220":-0.3725491464138031,"221":0.5549870729446411,"222":-0.3539254665374756,"223":-1.4739214181900024,"224":2.442852258682251,"225":1.7108570337295532,"226":-1.1416008472442627,"227":-0.9845568537712097,"228":1.1826881170272827,"229":1.2411725521087646,"230":-1.5484055280685425,"231":-0.42153918743133545,"232":1.3205862045288086,"233":0.9964603185653687,"234":0.3114144802093506,"235":0.3910810649394989,"236":-0.03610321506857872,"237":0.8258381485939026,"238":-0.3048064708709717,"239":-2.055734395980835,"240":0.3385130763053894,"241":0.7579776644706726,"242":-0.6832471489906311,"243":0.7694159150123596,"244":-0.8483960628509521,"245":-0.4129686951637268,"246":1.019147276878357,"247":1.6367267370224,"248":-1.9212069511413574,"249":-0.9093266129493713,"250":0.6433246731758118,"251":-1.463672161102295,"252":-3.2375643253326416,"253":-0.9509472846984863,"254":-0.3400735855102539,"255":-0.2730065584182739,"256":-0.5993486642837524,"257":1.1945942640304565,"258":0.20090584456920624,"259":-0.6332163214683533,"260":2.0687649250030518,"261":3.0882773399353027,"262":1.3155900239944458,"263":-0.739155113697052,"264":-0.21322789788246155,"265":2.2023491859436035,"266":0.9816803932189941,"267":0.08236682415008545,"268":0.2472367137670517,"269":-1.1160367727279663,"270":0.36660316586494446,"271":-0.35150080919265747,"272":0.806785523891449,"273":-1.9310632944107056,"274":-0.238750159740448,"275":-0.3437410593032837,"276":-1.2652051448822021,"277":0.26249098777770996,"278":3.108635425567627,"279":0.7225193977355957,"280":-0.5348370671272278,"281":0.7543591856956482,"282":-0.1912350058555603,"283":0.4126625955104828,"284":-0.5727694630622864,"285":-0.6556528806686401,"286":0.03402352333068848,"287":0.5727658271789551,"288":0.018180381506681442,"289":-0.3465583324432373,"290":1.0685254335403442,"291":0.5164395570755005,"292":-1.1700133085250854,"293":0.3399712145328522,"294":0.888763964176178,"295":0.5172953009605408,"296":-0.6587170958518982,"297":-1.1144444942474365,"298":0.12550419569015503,"299":0.2625696063041687,"300":-1.6417208909988403,"301":0.673032283782959,"302":-1.1718140840530396,"303":-0.4708060622215271,"304":-0.1920398473739624,"305":-0.47067996859550476,"306":-0.3367040455341339,"307":0.6930872201919556,"308":0.055790334939956665,"309":-0.9145247936248779,"310":1.0432515144348145,"311":0.8396271467208862,"312":0.16409458220005035,"313":0.34681838750839233,"314":-0.5866129994392395,"315":-0.20888517796993256,"316":0.26135343313217163,"317":1.779612421989441,"318":-0.6704185009002686,"319":0.916759192943573,"320":-0.16510625183582306,"321":0.5926249623298645,"322":-0.23379841446876526,"323":-0.769973874092102,"324":0.7551902532577515,"325":0.8362821936607361,"326":0.1627282351255417,"327":2.060635566711426,"328":0.9950457811355591,"329":-0.9165251851081848,"330":-0.7189404368400574,"331":-2.097315788269043,"332":-0.2329067587852478,"333":-0.7541614174842834,"334":1.8696919679641724,"335":-1.3504701852798462,"336":-0.47300538420677185,"337":0.12766127288341522,"338":1.0095298290252686,"339":-0.01546152587980032,"340":-0.12001992017030716,"341":0.2172195017337799,"342":0.527975857257843,"343":-1.6180024147033691,"344":0.736227810382843,"345":1.4300596714019775,"346":0.3565422594547272,"347":-0.04498837888240814,"348":2.2749557495117188,"349":-1.439933180809021,"350":1.1842819452285767,"351":0.6940211653709412,"352":1.843526840209961,"353":-0.057303160429000854,"354":0.6683067679405212,"355":-1.8966600894927979,"356":-1.2906821966171265,"357":1.5240931510925293,"358":0.8405147790908813,"359":0.2833392918109894,"360":1.2377376556396484,"361":0.2190813422203064,"362":0.8453568816184998,"363":-0.9221961498260498,"364":-0.8414376974105835,"365":-0.2923850119113922,"366":1.4233990907669067,"367":-0.2594025135040283,"368":-0.30476975440979004,"369":-0.19208931922912598,"370":0.5502992272377014,"371":0.3922831416130066,"372":-1.8962645530700684,"373":-0.7028741240501404,"374":0.417061448097229,"375":-1.6637859344482422,"376":-0.5035883188247681,"377":-0.39771416783332825,"378":0.27131688594818115,"379":0.7262264490127563,"380":1.0131171941757202,"381":1.4607425928115845,"382":0.46336671710014343,"383":-1.0478848218917847,"384":-0.5905300378799438,"385":0.1750354915857315,"386":-0.12586261332035065,"387":0.42751190066337585,"388":1.5498896837234497,"389":-0.6007898449897766,"390":-0.5586452484130859,"391":-0.44744783639907837,"392":0.8382828831672668,"393":-1.0565348863601685,"394":-0.004580372013151646,"395":1.6266809701919556,"396":0.1016295999288559,"397":0.5619083046913147,"398":1.6569385528564453,"399":1.0256553888320923}},"outputBias":{"rows":20,"columns":1,"weights":{"0":-0.7945020794868469,"1":-1.2827081680297852,"2":-1.857349157333374,"3":-1.3577030897140503,"4":-1.1248873472213745,"5":-1.614652395248413,"6":-1.1245131492614746,"7":-2.0592477321624756,"8":-1.3837652206420898,"9":-0.3777233958244324,"10":-0.7841275334358215,"11":-1.6125892400741577,"12":-1.5121710300445557,"13":-0.21491992473602295,"14":0.07409107685089111,"15":-1.1518528461456299,"16":-1.3629261255264282,"17":-1.052275538444519,"18":-1.7392878532409668,"19":-0.12378160655498505}},"cellActivationMatrix":{"rows":20,"columns":26,"weights":{"0":-0.29671499133110046,"1":-0.9212349653244019,"2":0.6275481581687927,"3":-0.7581615447998047,"4":0.5110951662063599,"5":-0.9262650609016418,"6":0.2994574010372162,"7":0.2292211949825287,"8":1.4010097980499268,"9":0.13919572532176971,"10":-0.28179994225502014,"11":0.5671728849411011,"12":1.1751214265823364,"13":1.153916835784912,"14":0.03654211014509201,"15":-0.46514248847961426,"16":0.30248400568962097,"17":-0.8604651689529419,"18":-0.9844934940338135,"19":-1.5838122367858887,"20":1.4252439737319946,"21":0.5016880631446838,"22":-0.11326819658279419,"23":-0.18614435195922852,"24":-0.6013101935386658,"25":-0.46600988507270813,"26":-0.7438606023788452,"27":-1.04343581199646,"28":0.8206122517585754,"29":-0.8552759289741516,"30":0.9781571626663208,"31":-0.5003485083580017,"32":0.6213386654853821,"33":-0.33305758237838745,"34":1.2310540676116943,"35":0.01683185249567032,"36":0.34986984729766846,"37":0.4773290455341339,"38":0.6381367444992065,"39":1.1371771097183228,"40":0.1545332670211792,"41":-0.18343879282474518,"42":0.5643196702003479,"43":-0.49875935912132263,"44":-0.6401429176330566,"45":-0.9826253056526184,"46":0.927548885345459,"47":0.09615696966648102,"48":0.31245264410972595,"49":0.265123188495636,"50":-0.7552443146705627,"51":-0.6229217648506165,"52":-0.015716439113020897,"53":-1.2228213548660278,"54":0.7011990547180176,"55":-0.8094533681869507,"56":0.6349213719367981,"57":-0.43643346428871155,"58":0.7023888230323792,"59":0.12087122350931168,"60":1.0316919088363647,"61":0.01838294044137001,"62":0.009020951576530933,"63":-0.035815369337797165,"64":0.49908939003944397,"65":0.8365783095359802,"66":-0.4732970893383026,"67":-0.04216478392481804,"68":0.28219932317733765,"69":-0.5673890113830566,"70":-0.6791015267372131,"71":-1.254750370979309,"72":1.1070855855941772,"73":0.1367253065109253,"74":0.5672205090522766,"75":0.003938585985451937,"76":-0.4480442702770233,"77":-0.6689043641090393,"78":1.1729133129119873,"79":0.2782917618751526,"80":-0.6626907587051392,"81":-0.000778190849814564,"82":-0.07759840786457062,"83":1.4002505540847778,"84":0.07690561562776566,"85":-0.10735709965229034,"86":-0.29107704758644104,"87":0.3282387852668762,"88":0.5218515396118164,"89":-0.7191705107688904,"90":-0.09792188555002213,"91":-0.13497476279735565,"92":-0.8626394867897034,"93":0.1927853673696518,"94":0.09203176945447922,"95":0.6328302025794983,"96":0.2457546591758728,"97":0.37090158462524414,"98":-0.17390407621860504,"99":-0.9591024518013,"100":0.2916145622730255,"101":0.7190883159637451,"102":1.6627963781356812,"103":1.1625028848648071,"104":0.5501445531845093,"105":1.391292691230774,"106":-0.7439903616905212,"107":1.6030757427215576,"108":-1.3371126651763916,"109":-0.4179143011569977,"110":-1.2353233098983765,"111":0.6887769103050232,"112":-1.103012204170227,"113":-0.25036871433258057,"114":-0.8455841541290283,"115":0.4192545413970947,"116":-0.3172619640827179,"117":-0.5842400789260864,"118":-0.44713476300239563,"119":-0.40369290113449097,"120":-0.9352046847343445,"121":-0.09556576609611511,"122":0.4129754304885864,"123":0.8843631744384766,"124":0.05144909396767616,"125":-0.09861761331558228,"126":0.3082408607006073,"127":-1.4646592140197754,"128":0.2313101887702942,"129":0.2468869686126709,"130":0.686248242855072,"131":-0.06760555505752563,"132":-0.48339855670928955,"133":-0.16409797966480255,"134":-0.06748596578836441,"135":0.5868542790412903,"136":0.2261137068271637,"137":-0.5564152598381042,"138":0.2193385511636734,"139":-0.16539253294467926,"140":1.1727203130722046,"141":-0.6580283045768738,"142":0.24289490282535553,"143":0.1741579920053482,"144":-0.23975807428359985,"145":0.09183917194604874,"146":0.5160496830940247,"147":0.48711833357810974,"148":-0.19798888266086578,"149":0.5129098892211914,"150":0.04716644063591957,"151":-0.07023055851459503,"152":0.0731874480843544,"153":1.008633017539978,"154":0.718022346496582,"155":0.9893046617507935,"156":-0.8156819939613342,"157":-0.9789024591445923,"158":-0.29661378264427185,"159":-0.4858867824077606,"160":0.1667422354221344,"161":-0.6168596744537354,"162":0.8404414653778076,"163":-0.5334300398826599,"164":0.3290815055370331,"165":0.03826307877898216,"166":0.5601165294647217,"167":-0.12555807828903198,"168":0.08273246139287949,"169":-0.5732880234718323,"170":0.6085835099220276,"171":0.8148686289787292,"172":1.6988525390625,"173":-0.1928044557571411,"174":-0.6775146126747131,"175":-0.14903946220874786,"176":-0.2319498211145401,"177":0.14054252207279205,"178":0.42408880591392517,"179":0.35817182064056396,"180":-0.7720304727554321,"181":-0.4228358566761017,"182":0.1972057819366455,"183":1.1658512353897095,"184":-0.9937157034873962,"185":0.9116101861000061,"186":-1.323679804801941,"187":-0.05682177096605301,"188":-0.7831001281738281,"189":-0.2467224895954132,"190":-0.8891254663467407,"191":-0.8663495182991028,"192":0.09611308574676514,"193":0.25883936882019043,"194":-0.9147692322731018,"195":-0.8312371969223022,"196":0.7907472252845764,"197":0.5120546817779541,"198":-0.21128499507904053,"199":1.0490238666534424,"200":0.7358545064926147,"201":0.7474756240844727,"202":-0.9803478121757507,"203":-0.04989222064614296,"204":0.2578011155128479,"205":-0.1679484248161316,"206":0.524408757686615,"207":-0.5102235078811646,"208":0.08127261698246002,"209":-1.4656788110733032,"210":0.28566426038742065,"211":-1.250440239906311,"212":1.03388249874115,"213":-0.4256134033203125,"214":0.9934889078140259,"215":-0.8321936130523682,"216":1.210590124130249,"217":0.6010671257972717,"218":0.7739999294281006,"219":0.08931807428598404,"220":1.2401373386383057,"221":0.0838063433766365,"222":0.4963665306568146,"223":0.46216556429862976,"224":1.8877900838851929,"225":-0.20329660177230835,"226":-0.840950608253479,"227":0.12569895386695862,"228":-0.5662850737571716,"229":1.250569462776184,"230":0.07214426249265671,"231":0.4933663308620453,"232":0.016872286796569824,"233":0.17154577374458313,"234":0.29023420810699463,"235":1.0441454648971558,"236":-1.2046178579330444,"237":0.5314711332321167,"238":-0.9829263687133789,"239":0.6031959652900696,"240":-0.28402844071388245,"241":0.3617146909236908,"242":-0.9998420476913452,"243":-0.09777363389730453,"244":-0.10159110277891159,"245":-0.07677200436592102,"246":0.1114368811249733,"247":-0.2787017524242401,"248":-0.2736130952835083,"249":-0.5903825163841248,"250":-0.6741368770599365,"251":0.6135416030883789,"252":0.6529378294944763,"253":0.34308236837387085,"254":0.47130247950553894,"255":-0.42907485365867615,"256":-0.007814070209860802,"257":-0.15100738406181335,"258":0.3648766577243805,"259":-0.17017611861228943,"260":-0.3054529130458832,"261":-0.80233234167099,"262":0.30602020025253296,"263":-0.6886462569236755,"264":0.5132288932800293,"265":1.1503095626831055,"266":0.6981967091560364,"267":-0.6649681925773621,"268":0.7033240795135498,"269":-0.2000347524881363,"270":0.771480917930603,"271":-0.9208310842514038,"272":0.648382306098938,"273":1.203120231628418,"274":-0.4887855648994446,"275":-0.36889323592185974,"276":-0.01585644669830799,"277":0.0377703458070755,"278":0.09435524791479111,"279":-0.23483385145664215,"280":0.48678937554359436,"281":0.03586796298623085,"282":-0.330494225025177,"283":1.099172830581665,"284":0.4166390597820282,"285":0.7741774916648865,"286":0.5228776335716248,"287":-0.3693017363548279,"288":0.29235702753067017,"289":-0.7502771019935608,"290":0.3880051374435425,"291":0.18926210701465607,"292":0.7365922927856445,"293":-0.6508322954177856,"294":-0.12603788077831268,"295":0.3645857572555542,"296":0.6650363206863403,"297":-1.0841835737228394,"298":1.0699917078018188,"299":0.7365605235099792,"300":-0.27733686566352844,"301":-0.38396480679512024,"302":0.7977424263954163,"303":-0.3395277261734009,"304":-1.295345664024353,"305":0.6701874136924744,"306":-0.3842160403728485,"307":-0.6856459975242615,"308":-0.2092420756816864,"309":0.7887119650840759,"310":0.4194504916667938,"311":1.1008479595184326,"312":0.3077442944049835,"313":-1.6951258182525635,"314":0.28832074999809265,"315":-0.7878854870796204,"316":1.2589473724365234,"317":-0.70047527551651,"318":0.4516989588737488,"319":0.1328883022069931,"320":0.8540810942649841,"321":0.37804657220840454,"322":0.16629096865653992,"323":0.17170822620391846,"324":0.8171896934509277,"325":0.16832077503204346,"326":0.029642213135957718,"327":-0.09848885238170624,"328":0.6989010572433472,"329":-0.9523710012435913,"330":-1.749922752380371,"331":0.34319743514060974,"332":0.11109577864408493,"333":0.8433570265769958,"334":-0.2863249182701111,"335":0.10665016621351242,"336":-0.3170262575149536,"337":0.7890701293945312,"338":0.38203710317611694,"339":0.469451367855072,"340":-0.1677398979663849,"341":0.12124709039926529,"342":-0.09894929826259613,"343":1.1734821796417236,"344":0.058739375323057175,"345":-1.8342750072479248,"346":0.8669911623001099,"347":-0.6956185102462769,"348":1.4705042839050293,"349":-1.4071468114852905,"350":-0.35261988639831543,"351":0.4276888966560364,"352":1.0155794620513916,"353":0.8967572450637817,"354":-0.60750812292099,"355":0.7899255156517029,"356":0.5109391808509827,"357":0.4710843861103058,"358":0.4653877019882202,"359":-0.6283999681472778,"360":0.8643951416015625,"361":1.6825041770935059,